0.120000, -0.140000, -0.220000, 0.200000, -0.370000, -0.220000, 0.110000, -0.160000, 0.110000, -0.210000, 0.290000, -0.160000, 0.130000, -0.350000, 0.380000, -0.470000, 0.050000, 0.330000, 0.100000, 0.270000, 0.170000, 0.080000, 0.100000, 0.020000, 0.020000, 0.050000, 0.150000, 0.260000, -0.200000, 0.170000, -0.150000, -0.430000, -0.120000, 0.440000, -0.060000, -0.480000, -0.070000, -0.290000, 0.400000, -0.160000, 0.080000, -0.050000, -0.180000, 0.470000, 0.290000, 0.090000, -0.200000, 0.450000, -0.070000, 0.320000, 
0.420000, 0.250000, -0.390000, -0.270000, 0.370000, -0.350000, 0.060000, -0.180000, -0.430000, 0.320000, -0.500000, -0.210000, -0.340000, 0.340000, -0.330000, 0.060000, 0.190000, 0.200000, 0.120000, 0.300000, -0.240000, 0.230000, -0.490000, 0.100000, 0.180000, 0.020000, -0.190000, 0.390000, -0.280000, -0.160000, -0.250000, 0.240000, 0.000000, 0.110000, 0.280000, -0.270000, 0.430000, 0.070000, 0.230000, -0.220000, -0.230000, 0.220000, 0.030000, -0.480000, -0.090000, 0.160000, 0.000000, 0.200000, -0.140000, -0.500000, 
-0.060000, 0.000000, -0.240000, 0.440000, 0.300000, -0.460000, -0.060000, 0.180000, -0.430000, -0.230000, -0.460000, -0.230000, 0.080000, -0.380000, 0.140000, -0.360000, -0.200000, -0.270000, 0.110000, 0.270000, -0.110000, -0.470000, -0.490000, 0.390000, 0.200000, 0.410000, -0.420000, 0.140000, -0.210000, 0.260000, 0.240000, -0.250000, 0.460000, 0.050000, 0.290000, -0.320000, -0.370000, -0.250000, -0.480000, 0.410000, 0.050000, -0.480000, -0.480000, 0.400000, -0.500000, 0.350000, -0.480000, -0.290000, 0.440000, 0.230000, 
-0.440000, 0.000000, 0.260000, 0.090000, -0.330000, 0.100000, -0.140000, -0.160000, 0.440000, -0.470000, 0.360000, 0.010000, 0.390000, 0.470000, 0.370000, 0.060000, -0.160000, -0.390000, 0.060000, 0.180000, 0.040000, -0.440000, 0.110000, 0.160000, -0.300000, -0.100000, 0.350000, 0.430000, -0.330000, -0.240000, -0.100000, 0.190000, 0.430000, -0.350000, -0.210000, 0.220000, 0.210000, 0.350000, -0.430000, -0.140000, -0.220000, -0.160000, -0.320000, -0.020000, -0.400000, -0.200000, -0.370000, -0.120000, -0.110000, 0.400000, 
-0.090000, -0.090000, -0.460000, 0.010000, -0.220000, 0.020000, 0.100000, 0.460000, 0.400000, -0.060000, -0.330000, 0.160000, 0.040000, -0.110000, -0.050000, 0.010000, -0.370000, 0.120000, 0.330000, 0.480000, 0.460000, 0.310000, 0.270000, -0.480000, 0.020000, -0.240000, 0.370000, 0.330000, -0.150000, -0.170000, -0.020000, -0.170000, 0.370000, -0.390000, 0.430000, -0.090000, -0.500000, -0.280000, -0.300000, -0.470000, -0.440000, -0.290000, -0.430000, 0.350000, -0.240000, -0.450000, -0.420000, -0.330000, 0.470000, -0.320000, 
-0.330000, 0.370000, -0.030000, -0.380000, -0.110000, 0.140000, -0.400000, 0.000000, -0.090000, -0.200000, -0.400000, -0.300000, -0.150000, -0.380000, 0.260000, 0.170000, 0.250000, 0.420000, -0.220000, -0.450000, 0.410000, -0.320000, 0.200000, 0.490000, -0.400000, 0.380000, -0.190000, -0.300000, -0.240000, 0.040000, 0.190000, 0.180000, -0.490000, 0.380000, 0.350000, -0.310000, -0.490000, -0.240000, 0.300000, 0.240000, -0.060000, -0.270000, 0.300000, -0.320000, -0.470000, -0.250000, 0.070000, 0.460000, -0.330000, 0.380000, 
0.110000, 0.420000, 0.420000, 0.190000, 0.240000, 0.160000, -0.370000, -0.200000, -0.050000, -0.160000, 0.440000, 0.430000, -0.290000, -0.150000, 0.440000, 0.090000, -0.300000, 0.050000, -0.310000, 0.030000, 0.390000, 0.210000, 0.340000, -0.370000, 0.050000, 0.450000, 0.030000, 0.090000, -0.280000, -0.390000, 0.270000, 0.320000, 0.040000, 0.160000, 0.160000, 0.080000, 0.430000, 0.120000, -0.030000, 0.000000, -0.240000, 0.070000, -0.030000, 0.190000, 0.460000, 0.040000, 0.340000, -0.190000, 0.140000, -0.230000, 
0.120000, 0.190000, -0.150000, -0.120000, 0.250000, 0.110000, 0.320000, 0.170000, 0.250000, -0.260000, -0.030000, 0.060000, -0.190000, 0.060000, 0.130000, 0.240000, 0.210000, -0.440000, -0.390000, -0.080000, -0.450000, 0.420000, -0.220000, 0.150000, 0.150000, 0.040000, 0.320000, -0.140000, -0.320000, 0.040000, 0.410000, -0.480000, -0.170000, -0.360000, -0.230000, 0.260000, -0.480000, 0.300000, 0.330000, -0.500000, 0.410000, -0.460000, -0.400000, 0.270000, -0.290000, 0.490000, -0.340000, -0.490000, -0.350000, 0.010000, 
-0.280000, -0.420000, 0.020000, 0.470000, 0.110000, 0.310000, 0.000000, 0.320000, 0.280000, -0.020000, -0.370000, 0.340000, -0.070000, 0.000000, 0.280000, 0.070000, 0.020000, 0.090000, -0.090000, -0.300000, 0.110000, -0.250000, -0.060000, -0.060000, -0.220000, -0.130000, -0.490000, 0.170000, -0.310000, -0.400000, 0.100000, -0.340000, 0.000000, 0.050000, -0.380000, 0.200000, 0.310000, -0.110000, 0.210000, -0.440000, -0.210000, 0.370000, 0.260000, 0.060000, -0.470000, -0.380000, 0.150000, 0.470000, 0.180000, -0.370000, 
-0.390000, -0.210000, -0.380000, 0.440000, 0.170000, -0.140000, -0.280000, -0.460000, 0.470000, -0.090000, 0.210000, -0.320000, -0.500000, -0.100000, -0.150000, 0.410000, -0.070000, -0.110000, 0.350000, -0.400000, 0.480000, -0.160000, 0.380000, 0.440000, -0.390000, 0.170000, -0.010000, -0.370000, -0.410000, 0.220000, 0.150000, 0.000000, 0.250000, -0.270000, 0.020000, 0.240000, 0.130000, 0.070000, -0.400000, 0.320000, 0.250000, 0.320000, 0.230000, 0.210000, -0.110000, -0.110000, -0.060000, 0.160000, 0.060000, -0.050000, 
0.140000, 0.310000, 0.090000, 0.420000, -0.060000, -0.380000, -0.110000, 0.260000, -0.110000, -0.070000, -0.480000, -0.040000, -0.330000, 0.370000, -0.080000, 0.040000, -0.470000, 0.290000, 0.250000, -0.270000, -0.200000, 0.160000, 0.060000, -0.420000, -0.460000, -0.420000, -0.270000, -0.430000, -0.470000, -0.070000, -0.160000, -0.170000, 0.300000, -0.310000, -0.500000, -0.320000, 0.350000, 0.460000, 0.220000, -0.200000, -0.480000, 0.170000, 0.130000, -0.440000, -0.260000, 0.220000, -0.460000, 0.200000, -0.470000, 0.410000, 
-0.350000, -0.460000, -0.210000, 0.330000, -0.320000, 0.120000, 0.370000, 0.370000, -0.100000, 0.440000, 0.480000, 0.340000, -0.460000, -0.090000, -0.100000, 0.310000, -0.480000, -0.420000, 0.040000, -0.100000, -0.500000, -0.470000, -0.330000, 0.490000, -0.140000, 0.030000, 0.220000, 0.450000, 0.170000, -0.070000, -0.190000, -0.470000, -0.270000, 0.320000, -0.340000, 0.210000, -0.110000, -0.290000, 0.140000, 0.420000, 0.050000, 0.380000, -0.180000, 0.170000, -0.320000, 0.080000, -0.100000, 0.010000, 0.260000, 0.190000, 
-0.210000, -0.210000, -0.110000, 0.400000, -0.410000, 0.310000, 0.360000, -0.320000, -0.040000, 0.080000, 0.150000, -0.190000, 0.220000, 0.430000, -0.400000, -0.480000, -0.040000, 0.190000, 0.070000, 0.100000, -0.130000, 0.270000, 0.030000, -0.410000, 0.090000, -0.290000, 0.280000, -0.190000, -0.180000, -0.020000, 0.140000, 0.190000, 0.100000, -0.330000, -0.380000, 0.130000, -0.100000, -0.490000, 0.420000, 0.130000, -0.130000, 0.430000, 0.180000, -0.170000, 0.060000, 0.190000, -0.490000, -0.070000, -0.260000, 0.460000, 
0.470000, 0.360000, 0.450000, -0.210000, 0.400000, -0.350000, -0.370000, 0.400000, -0.450000, 0.180000, 0.450000, 0.220000, -0.240000, -0.460000, -0.020000, 0.260000, -0.270000, 0.100000, -0.480000, 0.300000, -0.100000, 0.020000, 0.380000, -0.040000, 0.070000, 0.140000, 0.030000, -0.090000, 0.350000, 0.020000, -0.420000, 0.080000, 0.200000, 0.050000, 0.270000, -0.320000, -0.320000, 0.090000, -0.090000, 0.040000, -0.080000, 0.250000, -0.290000, 0.250000, -0.410000, -0.400000, 0.170000, 0.090000, 0.050000, 0.290000, 
0.290000, 0.000000, 0.380000, 0.170000, -0.440000, 0.000000, -0.400000, -0.460000, 0.000000, 0.210000, 0.420000, 0.480000, 0.150000, -0.310000, -0.160000, 0.100000, -0.450000, -0.220000, -0.470000, -0.040000, 0.480000, -0.020000, -0.130000, -0.180000, -0.030000, 0.460000, -0.240000, 0.380000, 0.200000, -0.060000, -0.330000, 0.160000, 0.460000, -0.110000, 0.150000, 0.240000, -0.500000, 0.020000, -0.190000, 0.040000, 0.060000, 0.480000, -0.080000, 0.140000, -0.290000, -0.140000, 0.040000, -0.240000, 0.060000, -0.260000, 
-0.290000, -0.140000, -0.390000, -0.430000, -0.500000, -0.390000, -0.490000, 0.360000, 0.400000, -0.180000, 0.030000, 0.260000, -0.350000, -0.460000, -0.130000, -0.460000, 0.100000, 0.090000, -0.350000, 0.290000, 0.310000, -0.500000, 0.280000, 0.230000, -0.410000, -0.220000, -0.270000, -0.440000, 0.470000, -0.220000, -0.290000, 0.330000, 0.090000, -0.470000, -0.410000, -0.470000, -0.410000, 0.270000, -0.010000, 0.100000, -0.130000, -0.490000, -0.310000, -0.240000, 0.080000, -0.130000, 0.260000, -0.220000, -0.140000, 0.250000, 
0.230000, 0.240000, 0.000000, 0.010000, -0.100000, 0.440000, -0.500000, 0.430000, 0.310000, 0.050000, -0.120000, 0.020000, -0.230000, 0.100000, 0.000000, 0.190000, -0.320000, 0.380000, 0.110000, 0.130000, -0.220000, 0.340000, -0.130000, -0.280000, 0.160000, 0.230000, 0.140000, -0.460000, 0.130000, -0.220000, 0.300000, 0.110000, -0.400000, 0.340000, 0.260000, -0.080000, -0.310000, 0.490000, -0.320000, 0.350000, -0.060000, 0.270000, 0.150000, 0.080000, -0.330000, 0.030000, 0.150000, -0.200000, 0.040000, -0.090000, 
0.380000, 0.340000, 0.260000, 0.150000, -0.200000, -0.180000, -0.080000, -0.130000, -0.050000, -0.160000, 0.130000, -0.320000, -0.270000, 0.360000, 0.250000, -0.480000, 0.340000, 0.480000, -0.270000, 0.050000, -0.010000, 0.330000, 0.350000, -0.340000, -0.160000, -0.490000, 0.330000, -0.040000, -0.170000, -0.140000, -0.310000, 0.280000, 0.230000, 0.260000, -0.170000, 0.150000, 0.460000, -0.360000, 0.320000, -0.350000, 0.400000, 0.490000, -0.070000, -0.260000, 0.070000, -0.330000, -0.490000, -0.410000, -0.410000, 0.410000, 
-0.100000, -0.200000, -0.110000, 0.240000, -0.430000, -0.380000, 0.040000, 0.360000, 0.140000, 0.450000, -0.010000, 0.150000, -0.140000, 0.010000, -0.360000, 0.250000, 0.430000, 0.180000, -0.110000, -0.250000, -0.420000, 0.110000, 0.480000, 0.410000, 0.020000, 0.220000, 0.360000, 0.480000, 0.280000, 0.090000, -0.050000, 0.200000, -0.400000, 0.270000, -0.430000, -0.050000, 0.310000, -0.060000, 0.250000, 0.120000, -0.470000, -0.130000, -0.130000, -0.450000, -0.310000, -0.220000, -0.300000, 0.330000, -0.020000, 0.410000, 
-0.330000, 0.100000, -0.100000, -0.500000, 0.490000, 0.170000, -0.280000, -0.380000, -0.340000, 0.230000, 0.290000, 0.300000, -0.340000, -0.070000, 0.320000, -0.200000, 0.400000, 0.010000, 0.300000, 0.050000, 0.490000, -0.290000, 0.250000, -0.450000, 0.090000, -0.120000, -0.480000, 0.400000, -0.260000, -0.450000, 0.000000, 0.480000, -0.270000, 0.400000, -0.170000, -0.160000, -0.430000, 0.170000, 0.270000, -0.490000, 0.310000, -0.370000, 0.460000, -0.270000, -0.080000, -0.030000, 0.430000, -0.030000, 0.090000, 0.030000, 
-0.360000, 0.080000, -0.150000, -0.030000, -0.210000, -0.360000, 0.280000, -0.440000, -0.260000, 0.220000, 0.250000, -0.080000, 0.420000, -0.060000, -0.050000, -0.480000, -0.380000, 0.170000, 0.380000, -0.210000, 0.220000, 0.160000, -0.180000, 0.280000, -0.400000, 0.240000, -0.170000, -0.480000, 0.150000, -0.440000, 0.340000, 0.150000, -0.130000, 0.180000, -0.460000, -0.260000, -0.300000, -0.100000, 0.190000, 0.160000, -0.170000, -0.040000, 0.470000, 0.380000, -0.120000, -0.320000, -0.500000, 0.310000, 0.000000, -0.370000, 
-0.070000, 0.020000, 0.310000, -0.430000, 0.220000, -0.030000, -0.160000, -0.260000, 0.180000, -0.190000, 0.310000, -0.380000, -0.010000, 0.090000, -0.230000, 0.100000, -0.300000, 0.010000, -0.170000, 0.090000, 0.460000, -0.280000, 0.330000, 0.080000, 0.420000, 0.400000, -0.440000, 0.000000, -0.050000, 0.390000, 0.350000, 0.420000, -0.110000, 0.280000, -0.200000, -0.100000, -0.480000, -0.500000, 0.140000, -0.240000, 0.370000, -0.240000, -0.220000, -0.280000, -0.270000, 0.180000, 0.060000, 0.250000, 0.100000, 0.030000, 
0.260000, 0.300000, 0.340000, -0.240000, -0.320000, 0.290000, -0.420000, 0.250000, -0.390000, 0.240000, -0.040000, -0.170000, -0.110000, -0.100000, 0.350000, 0.070000, 0.230000, -0.080000, 0.200000, 0.000000, 0.280000, -0.050000, 0.090000, -0.320000, 0.390000, 0.080000, -0.480000, -0.230000, 0.020000, -0.360000, -0.030000, 0.350000, 0.350000, 0.280000, 0.070000, 0.180000, -0.490000, 0.170000, 0.170000, -0.460000, 0.270000, -0.410000, -0.400000, 0.000000, -0.200000, 0.180000, 0.070000, 0.240000, -0.120000, -0.190000, 
-0.460000, 0.170000, 0.010000, -0.070000, -0.410000, 0.470000, 0.350000, -0.300000, 0.210000, -0.070000, -0.290000, -0.450000, -0.460000, 0.080000, -0.360000, 0.460000, 0.230000, 0.280000, -0.270000, 0.380000, -0.020000, -0.500000, -0.190000, -0.040000, 0.180000, 0.290000, 0.100000, 0.150000, 0.150000, 0.290000, -0.240000, 0.250000, -0.160000, -0.360000, -0.300000, -0.180000, 0.330000, 0.030000, 0.450000, -0.480000, -0.230000, 0.490000, -0.490000, -0.400000, -0.280000, 0.250000, 0.180000, 0.280000, 0.080000, -0.220000, 
-0.450000, 0.260000, 0.370000, -0.460000, -0.240000, -0.110000, 0.370000, -0.360000, 0.270000, -0.030000, 0.430000, 0.100000, -0.500000, -0.410000, 0.040000, -0.300000, -0.440000, -0.190000, 0.060000, 0.150000, 0.390000, 0.100000, 0.070000, 0.090000, 0.060000, -0.460000, 0.180000, 0.180000, 0.280000, -0.120000, -0.350000, 0.380000, -0.470000, 0.140000, -0.170000, 0.190000, 0.440000, -0.390000, -0.480000, -0.240000, 0.170000, 0.010000, 0.380000, 0.470000, 0.440000, 0.150000, -0.420000, 0.360000, 0.090000, -0.060000, 
-0.380000, -0.500000, 0.150000, -0.360000, -0.220000, -0.290000, 0.050000, 0.170000, 0.190000, 0.380000, -0.160000, -0.330000, 0.260000, 0.050000, -0.170000, -0.240000, 0.240000, 0.210000, 0.290000, 0.000000, 0.340000, -0.470000, 0.260000, 0.400000, 0.180000, 0.320000, -0.130000, -0.280000, -0.090000, 0.030000, 0.210000, -0.130000, 0.010000, -0.170000, 0.140000, 0.340000, -0.330000, 0.450000, -0.470000, 0.260000, -0.490000, 0.070000, 0.150000, 0.420000, 0.270000, -0.020000, 0.210000, 0.160000, 0.440000, -0.240000, 
0.340000, 0.250000, -0.500000, 0.100000, 0.310000, -0.180000, -0.330000, 0.090000, 0.430000, 0.190000, 0.130000, -0.160000, 0.110000, -0.390000, 0.440000, 0.150000, -0.460000, -0.200000, -0.260000, -0.200000, -0.030000, -0.080000, -0.270000, -0.070000, 0.000000, -0.140000, -0.470000, 0.260000, 0.400000, 0.210000, 0.250000, 0.350000, -0.480000, -0.220000, -0.480000, 0.450000, 0.330000, -0.450000, -0.450000, -0.250000, 0.450000, 0.240000, 0.170000, -0.210000, 0.210000, 0.360000, 0.310000, -0.100000, 0.350000, 0.130000, 
-0.200000, -0.490000, 0.100000, 0.300000, 0.490000, -0.030000, 0.170000, 0.100000, -0.250000, -0.410000, 0.010000, -0.320000, 0.170000, -0.310000, -0.110000, 0.250000, -0.480000, -0.160000, -0.050000, -0.450000, 0.150000, 0.310000, 0.230000, 0.420000, -0.070000, 0.130000, -0.200000, -0.100000, 0.070000, 0.430000, 0.010000, -0.110000, -0.160000, 0.260000, 0.290000, -0.330000, 0.100000, -0.320000, -0.250000, -0.220000, 0.110000, 0.160000, 0.490000, 0.090000, -0.290000, 0.030000, 0.080000, -0.440000, -0.400000, 0.080000, 
0.370000, -0.480000, -0.100000, 0.090000, -0.200000, -0.470000, -0.240000, -0.080000, 0.300000, 0.300000, -0.290000, 0.170000, -0.300000, -0.100000, 0.060000, -0.500000, 0.380000, 0.400000, -0.440000, -0.130000, -0.470000, 0.010000, -0.340000, -0.260000, 0.460000, -0.390000, 0.190000, 0.300000, 0.010000, 0.020000, -0.370000, 0.220000, 0.010000, 0.370000, 0.160000, 0.300000, 0.100000, -0.060000, -0.460000, 0.270000, -0.330000, -0.370000, 0.360000, 0.000000, 0.260000, -0.480000, -0.130000, -0.080000, -0.490000, -0.060000, 
0.260000, -0.110000, 0.180000, -0.330000, 0.360000, -0.090000, -0.330000, -0.400000, 0.380000, 0.320000, 0.070000, -0.130000, -0.460000, 0.180000, 0.240000, -0.080000, 0.290000, 0.470000, 0.160000, -0.330000, -0.350000, 0.290000, 0.070000, -0.410000, -0.420000, -0.210000, -0.420000, 0.440000, -0.100000, 0.350000, -0.340000, 0.040000, 0.330000, -0.370000, -0.200000, 0.070000, -0.030000, -0.050000, 0.040000, 0.190000, -0.360000, -0.470000, -0.210000, 0.180000, -0.040000, -0.430000, 0.370000, 0.140000, -0.240000, -0.230000, 
-0.460000, -0.190000, -0.020000, -0.300000, 0.250000, 0.070000, 0.070000, -0.230000, -0.200000, -0.460000, 0.440000, -0.060000, 0.000000, 0.480000, -0.130000, 0.210000, -0.080000, -0.370000, -0.220000, -0.230000, 0.370000, -0.410000, -0.190000, -0.260000, 0.320000, -0.210000, -0.010000, -0.310000, 0.140000, -0.240000, -0.210000, -0.010000, 0.430000, 0.030000, 0.100000, -0.380000, 0.150000, -0.060000, 0.340000, -0.190000, 0.330000, -0.220000, 0.430000, 0.310000, 0.440000, 0.390000, -0.500000, -0.350000, -0.060000, -0.150000, 
0.170000, 0.250000, 0.120000, -0.350000, -0.280000, 0.420000, 0.470000, -0.420000, 0.390000, 0.140000, 0.090000, 0.040000, -0.260000, 0.460000, -0.360000, 0.390000, -0.330000, -0.190000, -0.200000, -0.190000, -0.250000, -0.500000, 0.010000, -0.360000, -0.060000, 0.420000, 0.240000, -0.410000, 0.220000, 0.220000, -0.310000, -0.250000, -0.370000, -0.240000, -0.130000, 0.410000, -0.340000, 0.260000, 0.210000, 0.260000, -0.090000, -0.210000, -0.030000, 0.140000, 0.270000, -0.470000, -0.180000, 0.380000, -0.150000, -0.170000, 
-0.470000, -0.360000, -0.200000, 0.390000, -0.460000, -0.310000, -0.380000, 0.240000, -0.480000, 0.470000, -0.290000, 0.360000, -0.230000, 0.180000, 0.170000, 0.200000, -0.200000, 0.310000, -0.340000, -0.150000, -0.040000, 0.110000, 0.060000, 0.210000, -0.350000, -0.430000, 0.110000, -0.020000, 0.090000, -0.060000, -0.400000, 0.400000, -0.140000, -0.480000, 0.170000, -0.300000, -0.410000, 0.120000, -0.300000, 0.210000, -0.400000, -0.180000, -0.210000, -0.200000, 0.410000, -0.020000, 0.110000, -0.050000, -0.070000, -0.250000, 
-0.160000, 0.210000, -0.020000, 0.140000, 0.100000, 0.040000, -0.410000, -0.020000, 0.080000, 0.190000, 0.240000, 0.040000, -0.360000, 0.080000, -0.010000, 0.350000, 0.410000, -0.500000, 0.360000, 0.260000, 0.240000, -0.260000, -0.370000, 0.490000, -0.100000, 0.280000, -0.250000, 0.050000, 0.390000, 0.160000, -0.050000, 0.050000, 0.190000, 0.040000, 0.080000, 0.110000, 0.300000, 0.200000, -0.080000, 0.330000, -0.370000, 0.330000, -0.100000, 0.130000, 0.330000, -0.290000, 0.340000, 0.430000, -0.120000, -0.110000, 
0.240000, 0.270000, 0.090000, 0.220000, -0.190000, 0.430000, 0.400000, -0.270000, -0.460000, -0.270000, 0.000000, 0.290000, 0.420000, 0.260000, 0.230000, -0.340000, -0.290000, -0.080000, 0.000000, 0.490000, 0.000000, 0.050000, -0.160000, 0.230000, -0.120000, 0.130000, 0.170000, -0.140000, 0.100000, -0.250000, 0.080000, 0.340000, 0.450000, 0.320000, -0.200000, 0.350000, 0.130000, 0.450000, -0.380000, -0.050000, -0.100000, 0.060000, -0.500000, 0.230000, -0.440000, -0.340000, -0.500000, 0.370000, 0.170000, 0.490000, 
-0.460000, 0.460000, 0.050000, -0.330000, -0.110000, 0.190000, -0.270000, -0.370000, 0.350000, -0.440000, -0.070000, -0.330000, -0.210000, -0.010000, -0.500000, -0.120000, -0.350000, 0.270000, 0.410000, -0.310000, 0.160000, 0.480000, 0.100000, 0.140000, -0.150000, 0.100000, -0.310000, -0.380000, 0.080000, -0.410000, -0.410000, -0.320000, 0.400000, 0.450000, 0.040000, 0.000000, 0.340000, -0.040000, -0.140000, 0.130000, -0.140000, 0.190000, -0.440000, -0.430000, -0.250000, 0.440000, -0.320000, -0.450000, 0.080000, 0.400000, 
-0.220000, -0.200000, -0.040000, -0.050000, -0.420000, -0.440000, -0.130000, 0.150000, 0.120000, 0.160000, 0.450000, -0.180000, 0.390000, -0.150000, 0.060000, -0.440000, -0.020000, -0.280000, 0.440000, 0.490000, -0.310000, -0.470000, -0.170000, -0.190000, -0.420000, 0.030000, 0.040000, -0.260000, -0.290000, 0.450000, 0.170000, 0.180000, 0.380000, -0.360000, -0.160000, 0.330000, -0.030000, -0.430000, -0.180000, 0.440000, 0.000000, -0.310000, 0.430000, 0.300000, 0.110000, -0.490000, -0.490000, 0.050000, 0.040000, 0.190000, 
0.450000, -0.240000, 0.430000, -0.390000, -0.100000, 0.080000, 0.320000, 0.240000, -0.210000, -0.420000, 0.090000, -0.330000, -0.200000, 0.150000, 0.080000, 0.250000, 0.310000, -0.230000, 0.390000, 0.210000, 0.390000, 0.170000, 0.430000, -0.410000, -0.430000, 0.250000, -0.300000, -0.290000, 0.170000, 0.210000, 0.010000, 0.040000, -0.090000, -0.120000, 0.340000, 0.150000, -0.490000, 0.260000, 0.070000, -0.070000, 0.170000, -0.280000, 0.460000, -0.490000, -0.310000, 0.370000, 0.280000, -0.400000, -0.500000, 0.160000, 
-0.310000, -0.360000, -0.480000, -0.120000, 0.360000, 0.220000, -0.310000, 0.090000, 0.370000, -0.460000, -0.400000, -0.380000, 0.210000, -0.150000, 0.320000, -0.430000, -0.350000, -0.290000, 0.340000, -0.320000, -0.380000, -0.050000, -0.440000, -0.230000, -0.120000, 0.070000, 0.070000, -0.430000, -0.450000, -0.260000, -0.260000, -0.230000, -0.190000, 0.390000, 0.140000, -0.440000, 0.240000, 0.200000, 0.460000, 0.010000, 0.140000, -0.450000, 0.100000, -0.090000, -0.060000, 0.470000, 0.080000, 0.380000, 0.430000, 0.270000, 
0.070000, 0.040000, 0.490000, -0.100000, -0.270000, 0.330000, 0.180000, -0.060000, -0.440000, 0.410000, 0.030000, -0.490000, 0.030000, 0.280000, 0.060000, -0.410000, -0.210000, -0.170000, -0.030000, 0.410000, 0.430000, -0.230000, -0.350000, -0.190000, -0.190000, 0.390000, 0.280000, 0.470000, 0.030000, 0.280000, 0.030000, 0.170000, -0.260000, 0.400000, -0.200000, -0.280000, -0.230000, -0.080000, 0.430000, -0.400000, 0.090000, 0.260000, -0.010000, 0.210000, -0.480000, -0.350000, -0.200000, 0.090000, 0.160000, 0.000000, 
0.400000, 0.210000, 0.070000, -0.460000, -0.050000, -0.300000, -0.380000, -0.250000, 0.180000, 0.000000, 0.060000, -0.090000, 0.080000, -0.500000, -0.090000, -0.150000, -0.040000, 0.250000, 0.300000, 0.450000, -0.330000, 0.360000, 0.050000, -0.270000, 0.480000, 0.420000, 0.410000, -0.260000, -0.060000, 0.240000, 0.310000, -0.220000, -0.410000, -0.210000, -0.500000, 0.240000, 0.460000, -0.190000, 0.150000, 0.090000, 0.460000, -0.050000, -0.340000, 0.140000, 0.330000, -0.100000, 0.160000, -0.260000, -0.240000, -0.340000, 
0.040000, 0.090000, -0.490000, 0.080000, 0.420000, -0.490000, 0.190000, 0.150000, 0.230000, -0.200000, 0.280000, 0.440000, 0.140000, 0.090000, 0.240000, -0.500000, 0.400000, 0.220000, -0.240000, -0.470000, -0.090000, 0.100000, 0.090000, 0.280000, -0.370000, -0.350000, -0.460000, 0.200000, -0.480000, 0.110000, 0.070000, 0.180000, -0.060000, 0.220000, -0.120000, 0.400000, -0.340000, 0.330000, 0.020000, -0.300000, -0.060000, -0.060000, -0.110000, -0.380000, -0.010000, -0.060000, 0.450000, 0.080000, -0.200000, -0.240000, 
0.340000, 0.020000, 0.140000, -0.030000, -0.050000, -0.190000, -0.230000, 0.020000, 0.430000, 0.460000, -0.360000, 0.320000, 0.130000, 0.120000, 0.040000, 0.100000, 0.240000, 0.240000, 0.150000, 0.440000, -0.020000, -0.290000, -0.070000, -0.280000, -0.360000, 0.270000, -0.290000, 0.160000, -0.070000, 0.340000, 0.490000, 0.480000, 0.330000, -0.500000, 0.230000, 0.380000, -0.110000, 0.240000, -0.180000, 0.320000, 0.190000, -0.180000, -0.120000, -0.450000, 0.150000, 0.220000, 0.330000, 0.380000, 0.360000, -0.310000, 
-0.410000, 0.350000, -0.210000, 0.420000, -0.320000, -0.410000, 0.120000, 0.220000, -0.430000, 0.450000, -0.020000, -0.120000, -0.460000, 0.020000, -0.440000, 0.280000, 0.340000, 0.450000, 0.290000, -0.110000, -0.460000, -0.290000, -0.040000, -0.030000, -0.060000, 0.260000, -0.460000, -0.020000, -0.190000, -0.350000, -0.190000, -0.220000, -0.310000, -0.060000, -0.180000, 0.350000, 0.230000, 0.150000, 0.260000, 0.070000, 0.160000, 0.250000, 0.220000, 0.010000, -0.160000, -0.340000, -0.010000, 0.370000, 0.290000, 0.460000, 
0.140000, -0.150000, 0.180000, 0.040000, 0.370000, -0.220000, -0.460000, -0.060000, 0.090000, -0.160000, -0.030000, 0.010000, 0.040000, 0.450000, 0.100000, -0.080000, -0.440000, 0.290000, -0.190000, -0.290000, 0.400000, -0.170000, 0.090000, 0.420000, 0.130000, -0.360000, -0.030000, 0.220000, -0.360000, 0.180000, 0.060000, -0.120000, 0.010000, -0.310000, -0.210000, -0.320000, -0.480000, 0.430000, -0.260000, -0.050000, 0.110000, -0.190000, 0.300000, 0.230000, 0.110000, 0.070000, -0.020000, 0.220000, -0.420000, 0.200000, 
0.250000, 0.410000, 0.340000, 0.350000, 0.070000, -0.030000, -0.320000, -0.290000, -0.240000, -0.440000, 0.210000, -0.450000, -0.350000, -0.370000, 0.080000, 0.420000, -0.240000, 0.280000, 0.160000, 0.300000, 0.290000, 0.260000, 0.350000, -0.190000, -0.460000, -0.260000, 0.490000, -0.040000, -0.020000, 0.110000, -0.260000, -0.240000, 0.190000, 0.100000, 0.420000, -0.070000, -0.330000, 0.140000, 0.070000, 0.290000, -0.050000, -0.430000, -0.490000, -0.470000, -0.100000, -0.160000, -0.040000, 0.290000, 0.370000, 0.040000, 
-0.260000, -0.200000, -0.380000, -0.050000, -0.110000, 0.430000, -0.160000, 0.480000, 0.340000, 0.340000, 0.460000, -0.160000, -0.060000, -0.270000, -0.190000, 0.230000, 0.290000, -0.290000, -0.120000, 0.150000, -0.380000, -0.070000, -0.070000, -0.500000, 0.010000, -0.360000, -0.430000, 0.450000, 0.390000, -0.320000, 0.350000, 0.040000, -0.010000, 0.090000, -0.130000, -0.020000, 0.130000, 0.240000, 0.110000, 0.120000, -0.410000, -0.390000, 0.260000, 0.290000, -0.190000, -0.480000, 0.490000, -0.070000, 0.290000, -0.140000, 
-0.480000, 0.080000, 0.140000, -0.430000, -0.330000, -0.390000, -0.090000, 0.090000, -0.230000, -0.430000, 0.220000, -0.050000, 0.280000, 0.010000, -0.350000, 0.040000, -0.370000, 0.060000, 0.360000, 0.080000, 0.170000, 0.290000, 0.300000, -0.010000, -0.070000, -0.070000, 0.310000, 0.210000, 0.320000, 0.110000, 0.080000, 0.020000, -0.110000, 0.000000, 0.210000, 0.340000, -0.290000, 0.090000, -0.040000, -0.100000, -0.040000, -0.160000, 0.470000, 0.200000, 0.050000, -0.150000, -0.040000, -0.360000, 0.300000, 0.080000, 
-0.160000, 0.240000, -0.300000, -0.310000, 0.270000, 0.410000, -0.490000, -0.360000, 0.120000, 0.160000, 0.420000, 0.280000, -0.200000, -0.140000, -0.470000, -0.270000, 0.010000, -0.280000, 0.080000, -0.420000, 0.170000, 0.210000, 0.030000, 0.070000, -0.300000, -0.200000, 0.010000, 0.450000, 0.190000, 0.040000, -0.090000, 0.470000, -0.500000, 0.350000, 0.250000, -0.170000, -0.400000, -0.040000, -0.400000, -0.480000, 0.260000, 0.240000, -0.150000, 0.190000, -0.420000, 0.060000, -0.110000, 0.440000, 0.170000, 0.260000, 
0.020000, -0.460000, -0.360000, 0.250000, 0.230000, 0.080000, -0.300000, 0.240000, 0.170000, 0.280000, 0.490000, -0.200000, -0.460000, 0.290000, -0.050000, 0.320000, 0.190000, -0.410000, -0.160000, -0.270000, -0.370000, 0.010000, 0.300000, -0.290000, 0.330000, 0.120000, -0.330000, -0.450000, -0.210000, 0.230000, 0.330000, 0.050000, -0.080000, 0.190000, -0.160000, 0.110000, -0.250000, -0.400000, 0.380000, 0.410000, 0.210000, 0.450000, 0.100000, 0.030000, -0.040000, 0.290000, -0.050000, 0.110000, 0.040000, 0.180000, 
0.470000, 0.480000, -0.200000, 0.070000, -0.220000, -0.240000, -0.170000, -0.380000, -0.400000, -0.210000, -0.240000, 0.180000, -0.010000, 0.110000, 0.110000, -0.420000, -0.320000, 0.110000, 0.260000, 0.200000, -0.380000, 0.030000, -0.440000, -0.190000, -0.040000, 0.100000, -0.280000, 0.010000, 0.010000, -0.190000, 0.430000, -0.080000, -0.380000, -0.210000, -0.020000, 0.130000, -0.370000, -0.200000, 0.280000, -0.200000, 0.140000, 0.470000, 0.390000, -0.430000, -0.420000, 0.070000, 0.450000, -0.010000, -0.030000, 0.170000, 
0.010000, 0.340000, 0.190000, -0.210000, -0.490000, 0.350000, -0.310000, -0.020000, -0.380000, 0.000000, -0.230000, 0.150000, -0.190000, 0.020000, -0.160000, -0.010000, -0.240000, -0.450000, 0.330000, 0.400000, 0.120000, -0.220000, -0.040000, -0.490000, -0.290000, 0.330000, 0.270000, 0.490000, 0.430000, 0.020000, 0.200000, 0.200000, 0.230000, 0.060000, -0.260000, 0.270000, -0.440000, 0.060000, -0.010000, -0.380000, 0.090000, 0.050000, -0.350000, 0.060000, 0.490000, -0.130000, 0.440000, 0.250000, -0.440000, -0.050000, 
-0.190000, -0.050000, 0.420000, 0.160000, 0.080000, -0.240000, -0.180000, -0.450000, -0.390000, 0.470000, -0.220000, -0.490000, 0.180000, 0.450000, -0.400000, -0.390000, -0.070000, -0.030000, 0.050000, -0.330000, -0.050000, 0.350000, 0.250000, -0.070000, -0.470000, -0.080000, 0.390000, -0.190000, 0.290000, -0.250000, -0.230000, 0.200000, 0.330000, 0.070000, -0.060000, 0.290000, 0.460000, 0.210000, 0.040000, 0.280000, 0.180000, -0.230000, -0.190000, -0.240000, 0.250000, -0.360000, -0.430000, -0.400000, 0.330000, 0.010000, 
0.250000, -0.490000, 0.060000, -0.240000, 0.340000, 0.050000, -0.030000, -0.140000, -0.400000, 0.380000, 0.190000, -0.150000, -0.310000, 0.480000, 0.360000, -0.500000, 0.200000, 0.440000, -0.440000, -0.390000, -0.270000, 0.120000, 0.040000, -0.010000, 0.160000, -0.080000, 0.170000, -0.080000, 0.410000, 0.270000, -0.060000, 0.330000, 0.430000, -0.130000, 0.400000, 0.290000, 0.390000, 0.090000, -0.120000, -0.160000, -0.330000, 0.090000, -0.080000, -0.360000, -0.360000, -0.060000, 0.050000, 0.270000, -0.220000, 0.170000, 
-0.290000, 0.060000, -0.310000, 0.470000, 0.090000, 0.120000, -0.450000, 0.010000, -0.030000, 0.270000, 0.170000, 0.370000, 0.050000, -0.150000, -0.080000, 0.310000, -0.380000, -0.150000, 0.040000, 0.300000, -0.420000, 0.160000, -0.480000, -0.290000, 0.150000, 0.460000, 0.080000, -0.140000, 0.200000, -0.190000, 0.380000, -0.060000, -0.170000, -0.160000, -0.070000, -0.010000, -0.080000, 0.220000, -0.140000, -0.070000, -0.320000, 0.170000, -0.090000, -0.370000, 0.220000, -0.480000, 0.140000, 0.010000, -0.260000, -0.100000, 
-0.500000, -0.060000, 0.000000, 0.210000, -0.230000, 0.280000, -0.310000, 0.420000, 0.100000, -0.220000, 0.120000, 0.260000, -0.260000, 0.300000, 0.360000, 0.410000, 0.120000, 0.380000, -0.500000, -0.060000, -0.420000, 0.460000, 0.100000, -0.040000, -0.430000, 0.070000, 0.270000, 0.230000, -0.260000, -0.340000, -0.080000, -0.320000, 0.370000, -0.110000, 0.270000, 0.210000, -0.230000, 0.280000, 0.310000, 0.490000, 0.230000, 0.100000, 0.010000, -0.240000, -0.240000, 0.490000, -0.400000, 0.420000, -0.310000, 0.230000, 
-0.200000, -0.360000, 0.140000, -0.210000, 0.180000, 0.120000, 0.060000, 0.090000, 0.100000, -0.260000, 0.200000, -0.110000, 0.280000, -0.350000, 0.230000, 0.080000, 0.290000, -0.470000, -0.360000, -0.270000, -0.400000, 0.350000, -0.250000, 0.440000, -0.250000, -0.020000, -0.200000, 0.400000, 0.190000, 0.180000, 0.200000, -0.410000, -0.470000, 0.030000, 0.120000, 0.210000, -0.380000, 0.030000, -0.030000, -0.010000, 0.420000, -0.330000, -0.240000, -0.310000, 0.040000, -0.450000, -0.370000, 0.460000, -0.310000, 0.050000, 
-0.450000, -0.190000, -0.060000, -0.170000, -0.020000, 0.400000, 0.220000, -0.210000, -0.490000, 0.160000, -0.350000, -0.330000, -0.390000, -0.410000, -0.030000, 0.240000, 0.160000, 0.330000, -0.430000, -0.060000, 0.370000, -0.270000, -0.390000, 0.110000, 0.490000, -0.400000, -0.290000, -0.200000, 0.030000, -0.380000, 0.300000, -0.310000, -0.150000, -0.350000, -0.340000, -0.390000, -0.130000, -0.300000, -0.200000, -0.110000, -0.040000, -0.420000, 0.080000, 0.350000, -0.320000, 0.030000, -0.130000, 0.310000, 0.030000, 0.430000, 
-0.370000, -0.220000, 0.380000, -0.240000, 0.120000, 0.280000, 0.280000, -0.080000, -0.410000, -0.490000, 0.090000, 0.170000, -0.140000, -0.480000, 0.190000, -0.380000, -0.200000, 0.230000, -0.350000, 0.490000, 0.290000, 0.070000, 0.320000, 0.160000, 0.090000, -0.280000, 0.170000, 0.270000, -0.300000, -0.250000, -0.260000, -0.130000, 0.330000, 0.490000, 0.080000, -0.300000, -0.220000, -0.460000, -0.270000, 0.120000, 0.070000, 0.190000, -0.210000, 0.050000, 0.380000, 0.380000, 0.170000, 0.440000, 0.480000, 0.450000, 
0.390000, 0.080000, 0.450000, -0.260000, -0.450000, -0.470000, 0.240000, 0.400000, 0.170000, 0.360000, -0.240000, -0.410000, -0.050000, -0.010000, -0.050000, 0.010000, 0.290000, 0.030000, -0.080000, -0.010000, -0.330000, 0.370000, 0.130000, -0.070000, 0.300000, 0.460000, -0.460000, 0.330000, 0.050000, -0.490000, -0.320000, 0.150000, 0.170000, 0.390000, -0.040000, 0.480000, -0.060000, -0.350000, -0.490000, 0.260000, 0.440000, -0.410000, 0.490000, 0.300000, -0.340000, 0.150000, 0.410000, 0.470000, -0.220000, -0.040000, 
0.380000, -0.110000, -0.060000, -0.170000, 0.350000, -0.370000, 0.400000, 0.130000, 0.440000, 0.290000, -0.230000, 0.000000, -0.100000, 0.080000, 0.400000, -0.110000, -0.420000, 0.390000, -0.450000, -0.290000, 0.420000, 0.100000, -0.400000, 0.170000, 0.040000, 0.330000, -0.420000, -0.200000, 0.040000, 0.400000, -0.410000, 0.340000, 0.420000, -0.100000, -0.440000, 0.190000, -0.140000, -0.310000, -0.330000, 0.100000, -0.210000, -0.320000, -0.430000, -0.480000, -0.340000, -0.390000, 0.280000, 0.050000, 0.000000, 0.170000, 
-0.280000, -0.110000, -0.230000, 0.010000, -0.300000, 0.170000, 0.060000, 0.110000, -0.090000, -0.330000, 0.230000, 0.100000, 0.390000, 0.300000, -0.020000, -0.380000, 0.090000, -0.140000, 0.050000, 0.150000, -0.100000, 0.400000, -0.110000, -0.260000, -0.410000, 0.050000, 0.440000, 0.180000, -0.370000, -0.300000, -0.160000, -0.460000, -0.420000, -0.370000, 0.330000, 0.380000, -0.290000, -0.010000, -0.060000, -0.410000, 0.150000, -0.180000, -0.420000, 0.250000, -0.480000, -0.040000, -0.080000, 0.040000, 0.480000, -0.430000, 
-0.380000, 0.120000, 0.310000, -0.090000, 0.170000, 0.480000, 0.350000, -0.490000, 0.260000, -0.300000, -0.090000, 0.460000, -0.190000, 0.330000, 0.290000, 0.380000, -0.370000, -0.320000, 0.040000, -0.460000, -0.170000, 0.190000, -0.440000, 0.160000, 0.140000, 0.260000, -0.410000, -0.180000, 0.260000, 0.000000, 0.260000, 0.260000, -0.240000, -0.440000, 0.430000, 0.120000, 0.400000, -0.130000, 0.080000, -0.430000, 0.170000, 0.340000, -0.360000, -0.220000, 0.370000, 0.290000, -0.040000, 0.230000, -0.500000, 0.370000, 
0.200000, -0.150000, 0.240000, -0.010000, 0.080000, 0.310000, -0.450000, 0.440000, -0.010000, 0.430000, 0.370000, -0.090000, -0.440000, -0.070000, 0.470000, 0.100000, 0.440000, -0.220000, -0.160000, 0.200000, -0.070000, 0.350000, -0.360000, 0.420000, 0.010000, -0.190000, -0.080000, -0.350000, 0.290000, -0.380000, 0.330000, 0.230000, 0.290000, -0.280000, -0.030000, -0.040000, -0.350000, 0.450000, -0.220000, 0.230000, -0.210000, 0.070000, -0.120000, -0.430000, -0.170000, -0.470000, 0.330000, -0.350000, -0.390000, -0.230000, 
0.110000, 0.160000, -0.250000, 0.010000, -0.410000, -0.060000, 0.240000, -0.190000, -0.320000, -0.340000, 0.400000, 0.450000, -0.310000, -0.250000, -0.010000, 0.340000, -0.480000, -0.180000, -0.330000, -0.150000, -0.230000, -0.120000, -0.360000, 0.290000, 0.190000, -0.310000, -0.300000, 0.390000, 0.150000, 0.080000, 0.480000, -0.300000, 0.460000, 0.440000, -0.180000, -0.120000, 0.420000, -0.180000, 0.110000, -0.260000, 0.270000, -0.200000, 0.110000, 0.100000, 0.290000, -0.060000, -0.500000, 0.070000, 0.180000, 0.030000, 
0.280000, 0.060000, 0.310000, 0.360000, -0.200000, -0.140000, 0.400000, -0.230000, 0.430000, 0.220000, -0.040000, -0.110000, 0.060000, -0.490000, -0.470000, -0.420000, -0.010000, 0.210000, -0.490000, -0.320000, -0.170000, 0.360000, 0.230000, 0.260000, 0.090000, -0.260000, 0.100000, 0.190000, -0.460000, -0.240000, -0.150000, -0.320000, -0.050000, 0.030000, 0.000000, -0.440000, -0.140000, -0.230000, -0.190000, -0.210000, -0.270000, 0.360000, 0.110000, -0.330000, -0.340000, 0.020000, 0.300000, -0.290000, 0.400000, 0.290000, 
0.350000, 0.460000, -0.430000, 0.370000, -0.340000, -0.190000, -0.300000, 0.230000, -0.490000, 0.190000, 0.340000, 0.440000, 0.050000, 0.010000, -0.190000, 0.350000, -0.040000, -0.070000, -0.240000, -0.030000, 0.020000, -0.270000, -0.310000, -0.110000, -0.400000, 0.430000, -0.040000, 0.310000, -0.500000, -0.060000, -0.430000, 0.370000, 0.090000, -0.420000, 0.210000, -0.070000, 0.330000, -0.500000, 0.350000, -0.400000, -0.140000, 0.410000, -0.120000, -0.380000, 0.350000, 0.070000, -0.400000, 0.230000, -0.130000, -0.350000, 
-0.490000, 0.340000, -0.220000, -0.470000, -0.380000, -0.040000, -0.220000, -0.100000, -0.240000, -0.300000, -0.220000, -0.150000, -0.380000, 0.190000, -0.250000, -0.420000, 0.370000, -0.170000, -0.060000, -0.170000, -0.390000, 0.000000, 0.040000, 0.280000, -0.470000, 0.490000, 0.470000, 0.300000, -0.330000, 0.200000, -0.260000, 0.060000, 0.410000, -0.050000, 0.190000, 0.400000, -0.200000, 0.190000, 0.270000, -0.330000, -0.320000, 0.020000, -0.230000, -0.210000, 0.290000, -0.380000, -0.180000, -0.250000, -0.120000, 0.030000, 
0.310000, -0.380000, 0.140000, 0.210000, -0.190000, -0.310000, -0.490000, 0.460000, 0.470000, 0.100000, 0.270000, -0.310000, -0.100000, 0.180000, 0.230000, 0.180000, -0.410000, 0.230000, -0.100000, 0.100000, -0.450000, 0.300000, 0.300000, -0.280000, 0.310000, 0.260000, -0.080000, -0.060000, 0.100000, -0.370000, 0.100000, -0.270000, 0.170000, 0.000000, -0.240000, -0.160000, 0.040000, -0.320000, -0.020000, -0.200000, 0.310000, 0.230000, -0.180000, -0.280000, 0.000000, 0.250000, -0.150000, 0.470000, -0.250000, 0.430000, 
-0.350000, 0.050000, -0.500000, 0.110000, -0.340000, 0.310000, -0.110000, -0.030000, -0.380000, -0.440000, 0.410000, -0.380000, 0.160000, 0.210000, -0.400000, 0.190000, -0.210000, 0.110000, 0.330000, 0.180000, -0.040000, -0.340000, 0.160000, -0.230000, -0.230000, -0.030000, 0.100000, -0.030000, 0.380000, -0.090000, 0.300000, 0.080000, 0.210000, 0.390000, -0.400000, 0.130000, 0.380000, 0.200000, 0.460000, -0.500000, 0.290000, 0.060000, -0.080000, -0.500000, 0.100000, 0.210000, 0.440000, 0.000000, -0.320000, 0.400000, 
-0.380000, 0.190000, -0.180000, 0.270000, 0.080000, 0.170000, -0.340000, 0.380000, 0.430000, -0.260000, 0.130000, 0.010000, 0.020000, -0.320000, 0.310000, 0.100000, -0.460000, -0.430000, -0.420000, 0.120000, -0.150000, 0.180000, 0.380000, 0.230000, 0.190000, -0.290000, -0.320000, -0.430000, 0.350000, -0.270000, 0.380000, 0.160000, 0.050000, -0.100000, -0.500000, -0.380000, -0.170000, -0.480000, -0.200000, 0.050000, 0.010000, -0.350000, -0.320000, -0.210000, 0.440000, 0.220000, -0.470000, 0.360000, -0.170000, -0.190000, 
-0.460000, 0.400000, -0.080000, 0.490000, -0.410000, -0.440000, -0.120000, -0.240000, -0.120000, -0.190000, 0.260000, -0.390000, -0.040000, 0.470000, 0.480000, 0.120000, -0.100000, -0.380000, 0.400000, 0.220000, -0.070000, -0.110000, 0.400000, 0.200000, 0.140000, -0.050000, 0.240000, 0.450000, -0.230000, -0.030000, 0.400000, 0.360000, 0.050000, 0.390000, -0.060000, 0.290000, 0.360000, -0.010000, 0.490000, -0.380000, -0.480000, -0.010000, -0.090000, -0.430000, -0.190000, -0.100000, -0.120000, -0.320000, 0.300000, -0.150000, 
0.190000, -0.490000, -0.050000, 0.260000, 0.140000, -0.460000, -0.050000, 0.160000, -0.190000, 0.220000, -0.500000, 0.180000, -0.320000, -0.260000, 0.240000, -0.040000, -0.380000, -0.090000, -0.390000, -0.270000, -0.210000, -0.150000, -0.240000, 0.260000, -0.020000, -0.070000, 0.050000, 0.020000, 0.240000, -0.420000, -0.220000, -0.460000, 0.210000, 0.280000, 0.460000, -0.140000, -0.070000, 0.400000, 0.370000, 0.240000, -0.020000, -0.100000, -0.160000, -0.350000, 0.240000, 0.470000, -0.240000, -0.310000, -0.400000, 0.310000, 
0.460000, 0.430000, 0.140000, -0.280000, 0.190000, -0.110000, -0.270000, 0.450000, 0.090000, -0.020000, 0.220000, -0.230000, -0.490000, -0.180000, 0.150000, -0.220000, 0.260000, -0.330000, -0.260000, 0.460000, -0.360000, 0.450000, 0.110000, 0.140000, -0.300000, -0.490000, -0.430000, 0.400000, -0.450000, -0.420000, -0.010000, -0.170000, -0.170000, 0.000000, 0.000000, -0.280000, -0.290000, 0.230000, 0.090000, -0.270000, 0.320000, 0.330000, 0.070000, -0.220000, -0.500000, -0.260000, 0.490000, -0.360000, 0.490000, 0.240000, 
0.100000, -0.010000, 0.460000, -0.450000, -0.030000, -0.050000, -0.430000, 0.190000, -0.130000, -0.220000, 0.420000, -0.410000, -0.420000, 0.440000, 0.470000, -0.120000, -0.420000, 0.290000, 0.410000, 0.390000, 0.050000, 0.250000, -0.020000, 0.420000, 0.040000, -0.320000, 0.150000, -0.320000, -0.120000, -0.420000, -0.030000, -0.440000, -0.150000, 0.360000, -0.400000, -0.440000, 0.350000, 0.480000, -0.480000, -0.380000, 0.250000, 0.180000, -0.040000, -0.130000, 0.100000, 0.060000, 0.390000, -0.060000, -0.260000, -0.010000, 
0.100000, -0.310000, -0.170000, 0.070000, -0.380000, -0.500000, 0.050000, -0.170000, 0.440000, 0.480000, 0.300000, -0.190000, 0.260000, -0.480000, -0.280000, 0.360000, -0.480000, 0.360000, -0.500000, -0.170000, 0.360000, 0.180000, -0.190000, -0.010000, 0.450000, 0.390000, -0.200000, -0.350000, 0.260000, -0.450000, -0.390000, -0.330000, -0.390000, -0.050000, -0.110000, 0.010000, -0.010000, 0.400000, 0.030000, 0.350000, -0.020000, -0.300000, 0.320000, -0.150000, -0.080000, 0.110000, 0.020000, 0.450000, -0.430000, 0.210000, 
-0.120000, -0.260000, 0.230000, 0.110000, -0.250000, -0.020000, 0.340000, -0.090000, -0.390000, 0.450000, -0.460000, 0.210000, 0.290000, 0.250000, 0.490000, -0.220000, 0.470000, 0.190000, 0.200000, -0.310000, -0.020000, -0.240000, 0.200000, -0.200000, -0.170000, 0.280000, 0.000000, 0.200000, -0.380000, -0.360000, 0.050000, -0.370000, 0.030000, 0.490000, 0.370000, 0.040000, -0.360000, -0.330000, 0.190000, -0.090000, -0.230000, 0.040000, 0.130000, 0.430000, -0.410000, -0.060000, -0.040000, 0.450000, 0.370000, -0.020000, 
0.120000, 0.380000, -0.110000, -0.040000, 0.180000, -0.300000, 0.390000, -0.010000, 0.350000, 0.370000, 0.050000, 0.310000, 0.040000, -0.010000, 0.200000, 0.150000, -0.440000, 0.100000, -0.090000, 0.070000, 0.300000, -0.290000, -0.170000, 0.040000, -0.380000, -0.470000, -0.300000, 0.410000, 0.470000, 0.000000, 0.110000, 0.230000, 0.330000, 0.390000, -0.450000, -0.040000, 0.110000, 0.490000, -0.380000, 0.080000, -0.210000, 0.280000, 0.120000, 0.080000, 0.370000, 0.000000, -0.150000, -0.100000, 0.440000, -0.370000, 
-0.450000, -0.360000, -0.340000, 0.290000, 0.090000, -0.030000, -0.020000, -0.200000, 0.020000, -0.250000, 0.240000, -0.450000, -0.320000, 0.120000, 0.230000, -0.480000, -0.370000, 0.270000, 0.320000, 0.310000, 0.050000, 0.480000, 0.040000, -0.160000, 0.040000, -0.100000, -0.360000, 0.100000, -0.260000, -0.400000, 0.480000, -0.480000, -0.440000, 0.260000, -0.360000, 0.100000, 0.180000, 0.260000, 0.070000, -0.220000, 0.460000, 0.340000, 0.360000, 0.190000, -0.500000, -0.130000, 0.390000, 0.370000, -0.010000, -0.410000, 
0.200000, 0.160000, -0.160000, 0.460000, -0.160000, -0.280000, -0.240000, -0.220000, 0.380000, -0.380000, -0.270000, -0.090000, -0.320000, -0.250000, 0.470000, 0.380000, 0.430000, -0.230000, -0.490000, -0.110000, 0.140000, -0.270000, 0.450000, -0.180000, 0.470000, -0.130000, 0.310000, 0.340000, 0.100000, 0.480000, 0.330000, -0.170000, 0.110000, 0.410000, 0.230000, 0.290000, 0.430000, 0.300000, -0.290000, -0.350000, -0.060000, -0.310000, 0.080000, 0.230000, 0.430000, -0.360000, -0.060000, 0.260000, 0.280000, 0.200000, 
-0.380000, 0.170000, -0.030000, 0.400000, -0.090000, 0.080000, -0.320000, -0.100000, 0.130000, 0.340000, 0.160000, -0.100000, 0.230000, 0.020000, -0.210000, 0.290000, 0.300000, 0.460000, 0.110000, 0.450000, -0.500000, -0.190000, -0.030000, -0.460000, -0.490000, 0.120000, -0.360000, 0.170000, 0.490000, -0.090000, 0.360000, 0.490000, -0.140000, 0.290000, 0.420000, -0.030000, -0.100000, -0.480000, 0.030000, 0.260000, -0.140000, -0.430000, 0.100000, 0.230000, -0.070000, 0.140000, 0.280000, 0.300000, -0.280000, -0.470000, 
0.110000, 0.270000, -0.150000, 0.060000, 0.030000, -0.360000, 0.080000, 0.270000, 0.340000, 0.470000, -0.420000, -0.280000, -0.130000, -0.210000, 0.240000, 0.280000, -0.470000, -0.280000, 0.130000, -0.120000, -0.230000, -0.210000, 0.410000, 0.110000, -0.320000, 0.040000, -0.500000, -0.420000, 0.190000, 0.440000, 0.320000, 0.390000, 0.490000, -0.070000, 0.490000, -0.230000, 0.250000, 0.230000, -0.480000, 0.430000, -0.320000, -0.480000, -0.470000, 0.030000, 0.130000, 0.390000, 0.460000, 0.120000, 0.270000, 0.040000, 
0.180000, -0.410000, 0.170000, -0.230000, -0.260000, 0.180000, 0.100000, -0.500000, -0.350000, 0.380000, -0.270000, -0.040000, 0.130000, 0.120000, 0.260000, -0.410000, -0.100000, 0.150000, -0.070000, 0.000000, 0.400000, 0.260000, -0.290000, -0.040000, -0.250000, -0.050000, 0.320000, 0.310000, 0.220000, 0.040000, -0.400000, -0.390000, -0.250000, 0.140000, -0.300000, -0.240000, -0.230000, 0.390000, -0.110000, -0.050000, -0.250000, 0.400000, -0.120000, 0.230000, 0.450000, 0.020000, -0.310000, 0.370000, -0.310000, 0.400000, 
0.190000, 0.400000, 0.260000, 0.230000, -0.020000, -0.230000, 0.090000, 0.050000, -0.200000, 0.300000, 0.040000, 0.090000, 0.020000, -0.080000, 0.050000, -0.290000, -0.100000, -0.450000, -0.300000, 0.060000, 0.040000, 0.230000, 0.100000, 0.160000, 0.230000, 0.090000, -0.140000, -0.020000, 0.220000, 0.220000, -0.440000, -0.050000, -0.440000, -0.100000, 0.150000, 0.300000, -0.290000, 0.470000, 0.420000, -0.110000, -0.240000, -0.050000, 0.290000, 0.130000, -0.200000, -0.420000, 0.290000, -0.480000, 0.130000, -0.230000, 
-0.200000, -0.010000, 0.170000, -0.250000, -0.360000, -0.090000, -0.170000, 0.150000, 0.280000, -0.320000, -0.250000, -0.240000, -0.170000, 0.090000, 0.300000, -0.340000, -0.220000, -0.130000, -0.410000, -0.080000, 0.400000, 0.120000, 0.110000, -0.130000, -0.490000, 0.000000, -0.440000, -0.390000, -0.490000, -0.220000, -0.270000, 0.190000, -0.500000, 0.290000, -0.040000, 0.210000, -0.390000, -0.090000, 0.170000, 0.340000, 0.490000, 0.300000, -0.050000, -0.250000, -0.280000, 0.330000, 0.490000, -0.240000, 0.160000, 0.090000, 
0.270000, -0.170000, -0.060000, 0.230000, 0.200000, -0.320000, -0.400000, 0.050000, -0.370000, -0.280000, -0.230000, 0.010000, 0.450000, 0.400000, -0.480000, 0.480000, -0.280000, -0.420000, 0.200000, -0.230000, 0.490000, -0.320000, -0.120000, -0.390000, -0.350000, -0.440000, 0.130000, -0.110000, -0.490000, -0.150000, 0.040000, -0.250000, -0.100000, 0.450000, 0.040000, -0.410000, 0.480000, 0.040000, 0.040000, -0.370000, -0.260000, -0.090000, 0.320000, -0.110000, -0.040000, 0.040000, -0.200000, 0.350000, 0.470000, 0.170000, 
0.260000, 0.140000, 0.230000, -0.230000, 0.060000, 0.130000, -0.210000, 0.450000, 0.430000, 0.220000, 0.000000, 0.000000, -0.160000, -0.260000, 0.390000, -0.440000, 0.150000, 0.020000, 0.060000, 0.180000, 0.080000, 0.150000, 0.320000, -0.380000, -0.170000, 0.190000, -0.400000, -0.480000, 0.200000, -0.100000, 0.400000, 0.230000, -0.430000, -0.440000, 0.180000, -0.360000, 0.040000, 0.280000, -0.020000, 0.290000, -0.460000, -0.190000, 0.070000, 0.150000, -0.230000, -0.390000, 0.470000, -0.400000, 0.260000, 0.320000, 
-0.220000, -0.170000, 0.210000, 0.350000, 0.240000, -0.470000, -0.420000, -0.200000, -0.160000, 0.190000, -0.220000, -0.020000, 0.420000, 0.050000, 0.270000, 0.270000, 0.370000, -0.490000, -0.310000, 0.340000, 0.030000, 0.340000, -0.140000, -0.360000, 0.060000, -0.300000, -0.280000, -0.150000, 0.050000, 0.380000, 0.300000, -0.020000, -0.030000, -0.360000, -0.250000, -0.370000, 0.300000, -0.350000, 0.440000, 0.190000, -0.320000, 0.370000, 0.000000, -0.190000, 0.350000, 0.460000, -0.230000, -0.340000, -0.330000, -0.250000, 
-0.290000, -0.360000, -0.290000, 0.240000, 0.480000, -0.100000, 0.270000, 0.160000, 0.430000, 0.360000, 0.340000, 0.160000, -0.470000, -0.150000, 0.370000, -0.260000, -0.150000, 0.000000, 0.340000, 0.410000, 0.290000, -0.190000, 0.150000, 0.450000, 0.490000, 0.190000, -0.320000, -0.030000, -0.210000, 0.370000, 0.180000, -0.040000, 0.080000, 0.020000, -0.280000, 0.480000, -0.390000, 0.170000, 0.020000, -0.440000, -0.250000, -0.150000, 0.070000, -0.290000, -0.490000, -0.280000, 0.190000, 0.120000, 0.000000, 0.020000, 
0.350000, -0.200000, 0.300000, -0.330000, -0.140000, -0.240000, -0.110000, -0.220000, -0.240000, -0.040000, -0.300000, 0.360000, -0.170000, 0.090000, -0.250000, -0.050000, -0.060000, -0.200000, -0.050000, -0.120000, 0.430000, -0.350000, -0.330000, 0.000000, 0.220000, 0.450000, -0.010000, 0.210000, 0.160000, 0.160000, 0.040000, 0.430000, 0.120000, 0.390000, 0.440000, -0.080000, 0.350000, 0.400000, -0.100000, 0.340000, 0.130000, -0.320000, 0.200000, -0.130000, 0.070000, 0.270000, 0.060000, 0.450000, 0.040000, 0.300000, 
0.120000, 0.400000, -0.070000, 0.010000, -0.280000, -0.410000, 0.100000, -0.440000, -0.310000, -0.020000, -0.080000, -0.450000, 0.190000, -0.100000, -0.430000, 0.480000, -0.070000, -0.450000, 0.360000, -0.150000, -0.030000, 0.090000, -0.480000, -0.120000, 0.050000, -0.460000, 0.390000, -0.470000, 0.080000, 0.250000, -0.220000, -0.070000, -0.430000, 0.210000, 0.240000, -0.410000, -0.170000, 0.330000, 0.080000, 0.490000, -0.100000, -0.180000, 0.030000, 0.250000, -0.270000, 0.370000, 0.260000, 0.050000, -0.310000, 0.390000, 
0.040000, 0.010000, 0.110000, 0.060000, -0.050000, 0.100000, 0.120000, -0.440000, 0.430000, 0.120000, 0.190000, -0.360000, -0.180000, -0.090000, 0.440000, 0.440000, -0.120000, 0.110000, 0.340000, -0.290000, -0.030000, -0.250000, 0.400000, -0.130000, -0.380000, -0.380000, -0.420000, -0.420000, -0.250000, 0.420000, 0.130000, 0.010000, 0.390000, 0.000000, -0.250000, -0.350000, -0.040000, 0.120000, -0.290000, 0.190000, 0.090000, 0.280000, 0.190000, -0.380000, 0.140000, -0.290000, 0.290000, 0.300000, 0.460000, 0.080000, 
-0.280000, 0.410000, 0.230000, -0.160000, -0.010000, 0.300000, 0.410000, -0.030000, -0.360000, -0.210000, -0.460000, -0.320000, 0.380000, 0.480000, 0.210000, -0.500000, 0.390000, 0.380000, 0.030000, 0.420000, 0.310000, 0.250000, 0.470000, -0.330000, -0.040000, -0.500000, 0.190000, -0.100000, -0.220000, 0.250000, -0.050000, 0.380000, -0.200000, 0.490000, -0.270000, 0.460000, 0.390000, 0.450000, 0.140000, -0.300000, -0.230000, 0.320000, -0.190000, 0.230000, -0.040000, 0.160000, -0.270000, 0.310000, -0.360000, 0.240000, 
0.290000, -0.190000, -0.340000, 0.470000, 0.200000, 0.280000, 0.360000, 0.400000, 0.490000, 0.190000, 0.100000, -0.470000, -0.250000, -0.400000, 0.420000, 0.270000, -0.110000, -0.420000, 0.320000, 0.270000, 0.320000, -0.390000, -0.300000, 0.350000, -0.310000, 0.220000, -0.090000, 0.470000, 0.320000, 0.150000, -0.250000, -0.230000, -0.370000, 0.400000, -0.440000, 0.020000, 0.150000, -0.490000, -0.210000, -0.220000, -0.450000, -0.350000, 0.060000, -0.340000, 0.220000, 0.460000, 0.410000, -0.070000, 0.160000, 0.090000, 
-0.100000, -0.070000, 0.080000, -0.350000, -0.300000, -0.110000, 0.090000, 0.350000, -0.290000, 0.260000, -0.240000, -0.100000, 0.180000, 0.190000, 0.320000, 0.360000, 0.140000, 0.440000, -0.440000, 0.390000, -0.500000, 0.140000, -0.460000, 0.400000, 0.150000, 0.130000, 0.230000, -0.460000, 0.220000, -0.430000, -0.140000, 0.170000, 0.170000, 0.280000, 0.300000, 0.110000, -0.050000, -0.250000, 0.120000, 0.030000, 0.370000, -0.130000, 0.280000, 0.240000, 0.460000, -0.320000, 0.270000, 0.320000, 0.260000, 0.300000, 
0.380000, -0.460000, -0.270000, 0.340000, -0.050000, -0.060000, -0.480000, 0.040000, 0.430000, -0.370000, 0.390000, -0.340000, 0.490000, -0.080000, 0.380000, 0.370000, 0.360000, -0.440000, -0.310000, -0.110000, 0.310000, -0.190000, -0.350000, -0.330000, 0.410000, 0.360000, -0.090000, -0.450000, -0.240000, -0.170000, -0.070000, 0.400000, 0.370000, -0.300000, 0.470000, -0.470000, 0.390000, 0.100000, 0.330000, -0.020000, 0.360000, 0.460000, 0.410000, -0.170000, -0.390000, -0.200000, 0.080000, -0.070000, -0.490000, -0.080000, 
0.030000, -0.030000, 0.400000, 0.140000, -0.010000, 0.360000, -0.360000, 0.140000, -0.130000, -0.080000, 0.240000, 0.200000, 0.010000, -0.250000, -0.250000, -0.500000, 0.210000, -0.020000, -0.020000, 0.010000, -0.110000, 0.020000, -0.430000, 0.090000, -0.390000, -0.010000, 0.060000, -0.270000, -0.360000, -0.070000, -0.070000, -0.210000, -0.180000, -0.150000, 0.210000, 0.400000, 0.160000, -0.450000, 0.020000, -0.210000, 0.370000, 0.490000, 0.230000, 0.100000, -0.140000, -0.380000, -0.380000, -0.180000, 0.000000, 0.320000, 
-0.240000, 0.250000, -0.410000, -0.200000, 0.080000, -0.220000, -0.350000, -0.290000, 0.280000, -0.030000, 0.000000, 0.300000, 0.440000, -0.460000, 0.450000, -0.420000, -0.140000, -0.470000, 0.210000, -0.270000, -0.090000, -0.470000, -0.290000, 0.260000, -0.210000, 0.190000, 0.030000, 0.050000, -0.360000, 0.440000, 0.020000, 0.470000, 0.400000, -0.250000, -0.370000, -0.380000, -0.040000, 0.200000, -0.450000, 0.280000, -0.270000, 0.100000, 0.290000, -0.080000, 0.000000, 0.090000, -0.470000, -0.120000, -0.040000, 0.190000, 
0.390000, -0.160000, 0.100000, -0.010000, 0.260000, 0.140000, 0.190000, 0.120000, -0.290000, -0.220000, 0.400000, 0.190000, -0.400000, -0.380000, -0.400000, 0.420000, 0.110000, 0.060000, -0.270000, 0.180000, 0.030000, -0.380000, 0.400000, -0.500000, 0.190000, 0.420000, 0.030000, 0.070000, -0.220000, 0.350000, -0.400000, 0.050000, 0.120000, -0.250000, -0.400000, 0.320000, -0.280000, -0.160000, 0.030000, 0.160000, 0.420000, 0.130000, -0.020000, 0.090000, -0.130000, -0.500000, -0.440000, -0.290000, 0.350000, -0.380000, 
0.030000, 0.400000, 0.290000, -0.310000, -0.080000, 0.230000, -0.060000, 0.200000, -0.110000, 0.330000, 0.340000, -0.480000, -0.080000, 0.330000, 0.250000, 0.110000, 0.160000, 0.170000, 0.250000, 0.070000, -0.340000, -0.020000, 0.490000, 0.130000, 0.460000, -0.310000, 0.040000, 0.300000, -0.430000, 0.330000, 0.300000, 0.380000, 0.290000, 0.430000, 0.230000, 0.260000, 0.430000, -0.420000, -0.300000, -0.030000, -0.250000, -0.160000, -0.430000, 0.030000, -0.280000, -0.110000, 0.210000, 0.330000, -0.300000, -0.410000, 
0.460000, -0.340000, -0.140000, -0.200000, -0.120000, 0.040000, 0.310000, -0.460000, 0.350000, -0.360000, 0.140000, -0.210000, -0.290000, -0.250000, 0.090000, 0.350000, 0.140000, -0.330000, -0.180000, -0.120000, -0.240000, -0.060000, -0.390000, 0.230000, -0.360000, -0.110000, -0.160000, -0.040000, -0.060000, 0.100000, -0.480000, -0.450000, -0.460000, 0.140000, 0.390000, -0.140000, 0.410000, 0.430000, 0.380000, 0.050000, 0.190000, -0.310000, 0.450000, 0.360000, -0.150000, -0.330000, 0.450000, 0.320000, 0.120000, 0.290000, 
-0.370000, 0.050000, -0.240000, -0.310000, 0.250000, 0.090000, -0.250000, 0.210000, -0.260000, 0.430000, 0.110000, 0.130000, 0.210000, -0.230000, -0.080000, -0.450000, 0.160000, 0.270000, -0.210000, 0.020000, 0.230000, -0.290000, -0.020000, -0.020000, -0.230000, 0.080000, 0.320000, 0.240000, -0.430000, 0.270000, -0.250000, 0.250000, -0.360000, -0.220000, -0.130000, -0.150000, 0.230000, -0.230000, -0.470000, -0.180000, 0.440000, -0.140000, 0.400000, -0.060000, 0.080000, -0.490000, -0.130000, 0.060000, 0.190000, -0.340000, 
0.380000, -0.060000, -0.260000, 0.220000, -0.280000, 0.380000, 0.470000, 0.060000, 0.170000, 0.000000, -0.490000, -0.300000, -0.240000, -0.340000, 0.160000, -0.390000, 0.220000, 0.390000, -0.150000, -0.130000, 0.360000, 0.100000, 0.330000, 0.010000, -0.130000, -0.380000, 0.170000, 0.350000, -0.400000, -0.440000, -0.310000, 0.490000, 0.310000, 0.020000, 0.010000, 0.190000, 0.470000, -0.220000, -0.270000, 0.380000, -0.200000, -0.300000, -0.160000, -0.400000, -0.170000, -0.450000, 0.240000, 0.210000, 0.250000, -0.370000, 
-0.350000, -0.090000, 0.090000, -0.380000, 0.140000, -0.140000, 0.260000, 0.020000, 0.030000, -0.380000, 0.140000, 0.410000, -0.110000, -0.430000, 0.080000, 0.040000, -0.440000, -0.490000, 0.220000, -0.380000, -0.170000, 0.480000, 0.110000, -0.440000, -0.030000, 0.190000, 0.250000, 0.280000, 0.140000, 0.170000, 0.300000, 0.020000, -0.310000, -0.430000, -0.140000, -0.090000, -0.070000, 0.090000, -0.130000, 0.010000, 0.250000, 0.010000, -0.410000, 0.260000, -0.230000, 0.340000, -0.180000, -0.410000, -0.430000, -0.140000, 
-0.070000, 0.200000, -0.020000, 0.230000, -0.030000, 0.100000, 0.460000, -0.050000, -0.310000, 0.290000, 0.320000, -0.260000, -0.450000, 0.470000, -0.490000, -0.010000, -0.210000, 0.490000, 0.120000, -0.060000, 0.350000, -0.270000, -0.010000, 0.330000, -0.060000, -0.460000, -0.420000, -0.140000, -0.190000, -0.190000, 0.440000, 0.140000, -0.020000, -0.360000, 0.050000, 0.250000, -0.150000, -0.200000, 0.040000, -0.100000, -0.170000, -0.460000, 0.070000, 0.390000, -0.470000, 0.310000, -0.100000, 0.080000, -0.480000, 0.030000, 
-0.300000, -0.150000, 0.020000, -0.480000, 0.200000, 0.430000, -0.320000, 0.120000, -0.250000, -0.470000, -0.490000, 0.000000, -0.500000, -0.350000, 0.190000, -0.380000, 0.030000, -0.090000, -0.030000, 0.430000, -0.300000, -0.470000, -0.500000, -0.160000, 0.380000, -0.050000, -0.130000, -0.430000, 0.320000, -0.400000, 0.080000, -0.090000, 0.460000, -0.310000, 0.170000, -0.470000, -0.490000, -0.060000, -0.050000, -0.230000, -0.200000, 0.100000, -0.170000, 0.150000, -0.500000, 0.280000, 0.080000, 0.460000, 0.330000, -0.360000, 
0.090000, 0.020000, -0.250000, 0.020000, 0.110000, -0.370000, 0.190000, 0.250000, -0.030000, 0.340000, -0.300000, 0.390000, 0.300000, -0.480000, 0.410000, -0.320000, -0.400000, 0.340000, -0.050000, 0.350000, 0.320000, -0.230000, 0.230000, 0.050000, -0.030000, -0.470000, -0.060000, -0.410000, -0.300000, -0.250000, 0.480000, 0.020000, 0.470000, -0.320000, -0.230000, -0.100000, -0.070000, 0.260000, 0.150000, -0.470000, 0.000000, -0.390000, 0.380000, 0.370000, -0.040000, 0.020000, -0.110000, 0.210000, -0.410000, -0.140000, 
-0.050000, -0.250000, 0.190000, -0.230000, 0.060000, -0.370000, -0.260000, 0.350000, -0.140000, -0.430000, 0.200000, 0.080000, -0.180000, -0.190000, 0.160000, -0.080000, 0.290000, 0.390000, 0.180000, 0.060000, -0.070000, 0.180000, -0.320000, 0.100000, 0.360000, -0.140000, 0.200000, -0.210000, 0.200000, 0.330000, -0.420000, -0.160000, -0.130000, 0.050000, 0.010000, 0.070000, -0.500000, -0.500000, 0.410000, 0.240000, -0.210000, -0.110000, 0.390000, -0.290000, 0.160000, 0.110000, 0.450000, 0.170000, -0.090000, 0.360000, 
0.070000, 0.470000, -0.110000, -0.290000, 0.350000, -0.380000, 0.230000, -0.120000, 0.350000, 0.480000, -0.150000, 0.450000, -0.110000, 0.000000, 0.140000, -0.440000, -0.330000, 0.170000, -0.050000, -0.060000, -0.310000, -0.420000, 0.290000, -0.310000, 0.150000, -0.390000, 0.050000, 0.330000, -0.380000, -0.460000, 0.110000, 0.360000, 0.380000, 0.340000, -0.090000, 0.150000, -0.200000, -0.390000, 0.140000, 0.270000, 0.210000, -0.470000, 0.390000, -0.040000, -0.300000, 0.000000, 0.370000, -0.310000, -0.430000, 0.270000, 
0.180000, 0.120000, -0.140000, 0.110000, 0.180000, -0.310000, -0.300000, -0.340000, -0.370000, 0.240000, -0.380000, 0.260000, -0.460000, 0.350000, 0.050000, -0.400000, -0.170000, -0.030000, -0.080000, -0.470000, -0.130000, 0.300000, 0.030000, -0.230000, -0.270000, -0.460000, -0.440000, 0.000000, 0.120000, -0.280000, 0.260000, 0.230000, -0.050000, -0.140000, -0.100000, -0.130000, 0.470000, -0.140000, -0.240000, 0.330000, -0.070000, -0.220000, 0.340000, -0.020000, -0.380000, 0.350000, -0.480000, -0.490000, -0.130000, -0.140000, 
-0.080000, -0.110000, 0.150000, 0.120000, 0.300000, 0.460000, -0.430000, 0.220000, -0.230000, 0.000000, 0.340000, -0.360000, 0.450000, -0.490000, -0.240000, -0.200000, -0.340000, -0.480000, -0.350000, 0.190000, -0.260000, 0.060000, -0.140000, 0.000000, 0.090000, 0.090000, 0.260000, 0.060000, -0.360000, -0.150000, -0.080000, -0.290000, -0.220000, -0.100000, -0.260000, 0.180000, 0.360000, 0.140000, 0.410000, 0.250000, 0.110000, 0.400000, 0.130000, -0.410000, 0.480000, -0.120000, -0.440000, 0.140000, 0.350000, 0.470000, 
0.060000, -0.440000, 0.420000, -0.230000, 0.110000, -0.310000, 0.280000, 0.090000, 0.120000, 0.430000, 0.020000, 0.220000, 0.180000, -0.390000, -0.390000, -0.310000, 0.170000, -0.150000, -0.010000, -0.280000, -0.380000, 0.040000, 0.340000, 0.110000, -0.340000, -0.280000, 0.270000, 0.340000, -0.070000, 0.300000, -0.340000, 0.410000, -0.170000, 0.220000, 0.390000, -0.190000, 0.140000, -0.190000, -0.400000, 0.470000, 0.440000, -0.150000, 0.360000, 0.220000, -0.220000, -0.420000, -0.360000, 0.140000, -0.080000, -0.080000, 
0.250000, 0.470000, 0.020000, -0.180000, -0.240000, -0.270000, 0.020000, 0.320000, 0.280000, 0.180000, -0.110000, 0.470000, -0.210000, -0.430000, -0.100000, -0.490000, 0.410000, -0.420000, -0.480000, 0.080000, 0.460000, -0.120000, -0.220000, 0.170000, -0.130000, 0.470000, -0.220000, 0.110000, 0.320000, 0.010000, 0.300000, 0.170000, -0.020000, 0.270000, -0.480000, 0.310000, 0.370000, -0.010000, 0.080000, -0.470000, -0.350000, -0.120000, 0.270000, 0.370000, -0.080000, -0.190000, -0.490000, -0.170000, 0.160000, 0.050000, 
0.200000, -0.230000, -0.470000, -0.280000, -0.070000, -0.100000, 0.140000, -0.190000, -0.180000, 0.230000, -0.400000, 0.360000, -0.160000, -0.030000, -0.010000, 0.140000, -0.240000, -0.100000, -0.420000, 0.400000, -0.470000, -0.200000, 0.010000, 0.340000, -0.410000, 0.400000, -0.180000, -0.180000, 0.110000, 0.180000, 0.290000, -0.500000, -0.490000, -0.030000, 0.370000, -0.220000, 0.200000, 0.360000, -0.370000, 0.210000, -0.090000, -0.210000, -0.030000, 0.470000, -0.110000, -0.460000, -0.290000, -0.050000, 0.030000, -0.400000, 
0.270000, 0.060000, 0.320000, -0.200000, 0.200000, -0.070000, -0.170000, -0.190000, 0.140000, -0.010000, 0.300000, 0.420000, 0.430000, -0.090000, 0.300000, -0.190000, 0.470000, -0.170000, 0.350000, -0.270000, 0.040000, -0.260000, -0.070000, 0.330000, -0.470000, 0.020000, 0.440000, -0.480000, -0.410000, -0.340000, 0.140000, 0.260000, 0.490000, -0.480000, 0.190000, 0.210000, -0.100000, -0.500000, -0.270000, -0.270000, 0.120000, -0.260000, -0.100000, 0.290000, -0.480000, 0.280000, -0.010000, 0.040000, 0.070000, -0.050000, 
0.360000, 0.480000, 0.390000, -0.390000, -0.470000, 0.250000, 0.150000, 0.400000, -0.440000, -0.280000, 0.480000, -0.050000, -0.270000, -0.290000, 0.220000, 0.010000, 0.320000, 0.260000, 0.090000, -0.130000, 0.450000, -0.360000, -0.050000, -0.410000, -0.170000, 0.020000, -0.080000, -0.410000, 0.280000, 0.380000, -0.430000, -0.130000, -0.160000, 0.280000, 0.170000, -0.260000, 0.430000, -0.100000, 0.470000, -0.240000, 0.010000, -0.280000, -0.080000, -0.490000, 0.100000, -0.170000, 0.280000, -0.290000, -0.410000, -0.430000, 
-0.030000, 0.250000, -0.400000, 0.310000, -0.170000, 0.410000, 0.240000, -0.310000, 0.220000, 0.330000, 0.050000, 0.400000, -0.350000, 0.260000, 0.460000, -0.260000, -0.070000, 0.350000, 0.160000, 0.320000, -0.410000, 0.170000, 0.240000, -0.140000, 0.210000, 0.200000, 0.410000, -0.330000, 0.230000, 0.220000, 0.110000, 0.220000, -0.420000, -0.270000, 0.170000, 0.170000, -0.450000, -0.280000, -0.300000, -0.080000, 0.360000, 0.180000, -0.180000, -0.140000, -0.170000, -0.170000, -0.100000, 0.160000, 0.090000, 0.190000, 
-0.220000, 0.490000, -0.220000, -0.150000, -0.420000, 0.420000, 0.320000, -0.390000, 0.130000, -0.260000, 0.050000, 0.220000, 0.410000, -0.060000, 0.260000, 0.000000, 0.130000, 0.260000, 0.130000, 0.110000, -0.430000, 0.280000, -0.100000, 0.480000, -0.300000, 0.100000, 0.160000, -0.160000, -0.410000, 0.010000, -0.310000, 0.070000, -0.330000, -0.100000, 0.320000, -0.280000, -0.080000, 0.140000, 0.140000, -0.050000, -0.320000, -0.500000, 0.100000, -0.130000, 0.210000, 0.150000, -0.060000, 0.290000, 0.300000, -0.360000, 
-0.200000, -0.020000, 0.080000, -0.460000, 0.190000, 0.160000, -0.200000, -0.440000, -0.480000, -0.020000, 0.080000, -0.370000, 0.350000, 0.230000, 0.270000, -0.140000, 0.400000, -0.240000, 0.350000, 0.210000, -0.350000, -0.450000, -0.490000, 0.000000, 0.200000, -0.100000, 0.210000, -0.490000, -0.110000, 0.130000, -0.070000, -0.350000, -0.150000, -0.320000, -0.430000, 0.360000, -0.280000, 0.160000, -0.450000, -0.200000, -0.160000, -0.440000, -0.320000, 0.150000, -0.170000, -0.310000, -0.300000, -0.110000, 0.090000, 0.130000, 
0.070000, -0.210000, 0.290000, -0.340000, 0.130000, -0.090000, -0.210000, 0.090000, -0.030000, -0.340000, 0.050000, -0.490000, -0.500000, -0.290000, 0.470000, -0.410000, -0.410000, -0.410000, 0.000000, 0.490000, -0.060000, 0.110000, 0.460000, 0.130000, 0.250000, -0.130000, -0.010000, -0.400000, -0.370000, 0.190000, 0.140000, 0.100000, -0.500000, 0.150000, 0.140000, 0.290000, -0.360000, 0.350000, -0.200000, -0.070000, 0.080000, -0.230000, 0.200000, 0.440000, 0.020000, 0.020000, -0.330000, 0.320000, 0.410000, -0.410000, 
-0.260000, 0.400000, 0.390000, -0.370000, -0.100000, 0.130000, 0.290000, -0.350000, -0.080000, -0.020000, 0.010000, 0.050000, 0.110000, 0.060000, 0.050000, 0.200000, -0.320000, -0.340000, -0.250000, 0.010000, 0.260000, -0.420000, -0.240000, 0.010000, -0.240000, 0.170000, 0.410000, 0.380000, 0.340000, 0.110000, 0.220000, -0.430000, -0.030000, -0.120000, 0.200000, 0.040000, 0.390000, 0.440000, 0.040000, -0.280000, 0.180000, -0.280000, 0.360000, 0.000000, -0.490000, -0.200000, -0.060000, -0.020000, 0.140000, 0.030000, 
-0.140000, 0.460000, -0.090000, -0.460000, -0.260000, 0.460000, -0.170000, -0.330000, -0.460000, 0.300000, 0.100000, 0.110000, -0.110000, -0.190000, -0.020000, -0.110000, 0.440000, 0.230000, -0.460000, -0.220000, -0.220000, -0.180000, -0.450000, 0.100000, 0.110000, 0.480000, -0.220000, -0.270000, 0.380000, 0.280000, 0.130000, 0.030000, -0.310000, -0.070000, 0.070000, -0.490000, -0.060000, -0.060000, 0.340000, 0.470000, -0.040000, -0.210000, 0.230000, -0.480000, -0.040000, 0.060000, 0.370000, 0.220000, -0.280000, -0.470000, 
0.160000, 0.040000, -0.230000, -0.380000, 0.460000, -0.220000, -0.500000, 0.020000, 0.280000, -0.360000, -0.160000, -0.240000, 0.390000, 0.170000, 0.060000, 0.400000, -0.100000, 0.160000, 0.350000, -0.430000, -0.150000, 0.010000, -0.470000, -0.400000, -0.180000, 0.030000, 0.200000, 0.250000, 0.200000, -0.010000, -0.460000, 0.180000, 0.170000, -0.500000, 0.080000, -0.280000, 0.210000, 0.010000, 0.330000, -0.410000, 0.390000, 0.470000, -0.060000, -0.320000, -0.360000, -0.160000, 0.380000, -0.240000, 0.490000, 0.340000, 
0.260000, 0.060000, -0.060000, -0.040000, 0.290000, -0.430000, -0.440000, 0.450000, -0.160000, -0.390000, 0.210000, -0.170000, -0.180000, 0.150000, 0.440000, 0.230000, -0.360000, 0.430000, 0.310000, -0.410000, -0.260000, -0.130000, -0.320000, 0.220000, -0.470000, -0.250000, 0.190000, 0.380000, 0.050000, 0.160000, -0.220000, 0.060000, 0.030000, -0.350000, 0.370000, -0.050000, 0.250000, 0.310000, -0.470000, -0.300000, 0.330000, -0.170000, -0.380000, 0.120000, 0.250000, 0.020000, 0.150000, -0.440000, -0.400000, -0.040000, 
-0.020000, -0.310000, 0.480000, -0.330000, -0.200000, 0.460000, 0.040000, -0.280000, -0.460000, 0.060000, 0.340000, 0.150000, 0.320000, 0.320000, 0.140000, -0.080000, -0.320000, -0.430000, -0.410000, -0.090000, 0.140000, -0.160000, 0.000000, 0.170000, 0.220000, -0.470000, -0.250000, 0.450000, 0.110000, 0.440000, 0.300000, 0.440000, 0.220000, -0.390000, 0.430000, 0.110000, -0.230000, 0.460000, -0.250000, -0.440000, -0.270000, 0.000000, 0.470000, -0.450000, -0.300000, 0.380000, -0.230000, 0.310000, -0.190000, -0.460000, 
0.030000, -0.300000, -0.310000, -0.010000, -0.490000, 0.170000, 0.140000, 0.270000, -0.460000, -0.370000, 0.260000, -0.460000, -0.100000, 0.470000, 0.460000, -0.070000, 0.380000, -0.100000, 0.490000, 0.490000, 0.430000, -0.040000, -0.340000, -0.020000, 0.050000, -0.300000, 0.100000, -0.290000, 0.270000, -0.270000, 0.430000, -0.330000, 0.040000, -0.270000, 0.460000, -0.410000, -0.370000, 0.380000, 0.080000, 0.350000, -0.180000, -0.210000, -0.090000, 0.150000, 0.440000, -0.320000, -0.330000, 0.070000, -0.360000, 0.020000, 
-0.210000, 0.330000, -0.210000, -0.320000, 0.130000, 0.090000, -0.400000, -0.230000, -0.460000, 0.350000, 0.280000, 0.280000, -0.180000, 0.220000, -0.180000, -0.420000, -0.260000, -0.310000, -0.400000, -0.390000, -0.220000, -0.440000, -0.500000, 0.410000, 0.470000, 0.130000, -0.180000, -0.440000, 0.330000, 0.480000, 0.370000, -0.250000, -0.180000, 0.020000, -0.180000, 0.380000, -0.370000, 0.340000, -0.060000, -0.420000, -0.300000, -0.050000, -0.080000, 0.130000, -0.020000, 0.040000, 0.490000, -0.420000, 0.270000, -0.100000, 
0.380000, -0.370000, 0.430000, -0.330000, 0.410000, -0.500000, 0.350000, -0.210000, 0.160000, 0.190000, -0.310000, 0.000000, 0.300000, -0.480000, -0.110000, 0.170000, -0.180000, 0.270000, 0.380000, -0.410000, -0.080000, -0.180000, 0.400000, 0.140000, 0.130000, 0.140000, -0.270000, 0.280000, -0.110000, -0.170000, 0.290000, 0.090000, 0.310000, -0.350000, 0.290000, 0.350000, 0.240000, -0.160000, -0.020000, 0.000000, 0.170000, 0.410000, -0.230000, -0.110000, -0.050000, -0.360000, 0.100000, -0.420000, 0.080000, 0.090000, 
0.480000, 0.060000, -0.250000, 0.470000, -0.240000, 0.370000, -0.090000, -0.090000, 0.410000, -0.150000, -0.360000, -0.360000, 0.010000, 0.190000, 0.420000, -0.270000, -0.130000, 0.270000, 0.380000, 0.290000, 0.420000, 0.350000, -0.360000, -0.140000, 0.180000, 0.410000, -0.430000, -0.160000, 0.090000, 0.420000, -0.180000, -0.270000, -0.200000, 0.080000, -0.430000, -0.440000, -0.370000, -0.470000, -0.050000, 0.200000, 0.180000, -0.470000, 0.470000, 0.110000, -0.100000, 0.180000, -0.450000, -0.330000, -0.290000, -0.220000, 
0.040000, 0.130000, 0.420000, 0.030000, 0.100000, -0.390000, 0.350000, -0.080000, 0.010000, 0.190000, -0.290000, 0.110000, -0.150000, -0.460000, -0.280000, -0.450000, -0.410000, -0.370000, 0.070000, -0.330000, -0.270000, 0.360000, 0.280000, -0.380000, 0.360000, 0.400000, -0.360000, -0.320000, 0.390000, -0.230000, -0.190000, -0.210000, -0.070000, -0.190000, 0.220000, 0.340000, -0.090000, -0.310000, 0.210000, -0.040000, 0.040000, -0.090000, 0.370000, -0.470000, -0.070000, 0.340000, 0.110000, 0.460000, 0.210000, -0.050000, 
0.420000, -0.380000, 0.090000, 0.300000, 0.410000, -0.320000, -0.130000, 0.230000, -0.050000, 0.110000, -0.180000, -0.260000, 0.070000, 0.330000, -0.370000, -0.460000, -0.330000, -0.220000, 0.400000, -0.190000, -0.460000, 0.470000, 0.300000, -0.460000, 0.410000, 0.460000, -0.380000, 0.270000, -0.450000, -0.060000, 0.350000, -0.100000, -0.250000, 0.320000, 0.220000, -0.350000, 0.490000, -0.180000, -0.020000, 0.460000, -0.060000, 0.110000, -0.400000, 0.000000, -0.090000, -0.040000, 0.410000, 0.150000, -0.310000, -0.190000, 
-0.090000, -0.080000, 0.260000, -0.320000, -0.010000, -0.100000, 0.090000, 0.380000, 0.280000, -0.400000, -0.450000, -0.250000, -0.130000, -0.360000, 0.440000, 0.290000, -0.490000, -0.390000, 0.460000, 0.260000, 0.400000, -0.050000, -0.280000, 0.450000, 0.280000, 0.450000, 0.300000, 0.230000, -0.360000, 0.350000, 0.220000, 0.280000, 0.120000, -0.390000, 0.100000, 0.470000, -0.470000, 0.280000, -0.210000, -0.260000, -0.490000, -0.330000, 0.140000, -0.250000, -0.020000, -0.190000, 0.010000, 0.040000, -0.360000, -0.390000, 
-0.010000, 0.040000, -0.040000, -0.500000, -0.180000, 0.310000, 0.110000, -0.130000, -0.210000, -0.180000, 0.130000, 0.190000, -0.470000, 0.140000, -0.190000, 0.120000, -0.170000, -0.390000, 0.450000, -0.180000, 0.040000, 0.170000, -0.130000, -0.400000, -0.480000, 0.240000, -0.230000, -0.360000, 0.470000, -0.070000, 0.390000, 0.370000, 0.090000, 0.420000, -0.400000, -0.030000, -0.220000, 0.160000, -0.270000, -0.040000, -0.170000, -0.020000, 0.490000, 0.100000, 0.400000, 0.380000, -0.260000, 0.280000, -0.170000, -0.160000, 
-0.060000, -0.050000, 0.270000, 0.250000, 0.470000, -0.060000, -0.370000, 0.220000, -0.390000, -0.060000, 0.270000, -0.500000, 0.300000, 0.390000, 0.350000, 0.370000, -0.240000, -0.180000, 0.010000, 0.290000, 0.010000, 0.470000, -0.270000, 0.040000, -0.350000, -0.430000, 0.130000, -0.040000, 0.240000, 0.280000, 0.350000, -0.310000, -0.030000, 0.310000, 0.310000, -0.470000, 0.240000, 0.100000, 0.300000, -0.370000, -0.330000, -0.070000, 0.390000, -0.240000, 0.340000, 0.020000, -0.470000, -0.020000, -0.080000, -0.410000, 
-0.480000, -0.460000, 0.050000, -0.370000, 0.160000, -0.480000, -0.150000, 0.430000, 0.040000, 0.290000, -0.130000, -0.210000, -0.330000, 0.400000, 0.420000, -0.470000, 0.290000, -0.270000, -0.130000, -0.160000, 0.300000, -0.160000, 0.040000, 0.300000, -0.400000, -0.170000, 0.480000, -0.460000, 0.320000, 0.140000, -0.340000, 0.280000, -0.440000, 0.170000, -0.240000, -0.170000, -0.100000, -0.420000, -0.170000, -0.220000, -0.280000, 0.450000, 0.320000, -0.500000, 0.290000, 0.040000, 0.290000, -0.440000, 0.340000, -0.300000, 
-0.310000, -0.500000, 0.020000, 0.230000, -0.020000, 0.210000, 0.320000, -0.470000, -0.080000, -0.200000, -0.420000, -0.180000, 0.330000, 0.010000, -0.250000, -0.060000, 0.270000, 0.120000, 0.110000, -0.180000, 0.230000, 0.030000, 0.420000, -0.080000, -0.380000, -0.070000, 0.350000, 0.010000, -0.330000, 0.340000, 0.020000, 0.110000, 0.370000, 0.190000, 0.250000, -0.010000, -0.010000, -0.370000, -0.190000, 0.330000, 0.010000, 0.320000, -0.080000, -0.230000, -0.080000, 0.200000, -0.020000, -0.200000, -0.440000, -0.060000, 
-0.260000, -0.280000, -0.230000, -0.020000, -0.440000, 0.170000, -0.390000, 0.320000, 0.300000, -0.470000, -0.210000, 0.040000, -0.050000, 0.030000, -0.300000, 0.060000, -0.420000, 0.090000, 0.050000, -0.240000, 0.400000, 0.090000, 0.470000, -0.130000, 0.340000, -0.250000, -0.270000, 0.370000, 0.310000, -0.290000, 0.290000, -0.100000, 0.380000, -0.330000, 0.110000, -0.430000, 0.480000, 0.350000, -0.280000, 0.330000, 0.170000, 0.220000, 0.200000, 0.490000, 0.310000, -0.400000, -0.050000, 0.120000, 0.270000, 0.300000, 
-0.030000, -0.060000, -0.050000, 0.120000, 0.010000, -0.020000, -0.500000, 0.200000, -0.380000, 0.420000, -0.440000, -0.060000, -0.450000, 0.280000, -0.300000, -0.400000, -0.420000, 0.190000, 0.060000, 0.320000, 0.240000, 0.370000, 0.440000, -0.400000, -0.060000, -0.330000, -0.160000, 0.290000, 0.030000, -0.160000, 0.250000, 0.060000, 0.400000, 0.130000, 0.160000, -0.070000, -0.480000, -0.310000, -0.170000, 0.140000, 0.480000, 0.130000, -0.450000, 0.030000, 0.290000, 0.290000, 0.040000, -0.480000, -0.410000, 0.070000, 
0.320000, -0.150000, 0.160000, 0.360000, -0.100000, -0.390000, -0.180000, 0.390000, 0.360000, 0.450000, 0.130000, -0.430000, -0.400000, -0.040000, 0.030000, -0.170000, 0.180000, 0.300000, 0.170000, -0.430000, -0.160000, 0.070000, -0.270000, -0.030000, -0.160000, 0.170000, 0.140000, -0.170000, 0.420000, 0.360000, 0.140000, -0.080000, 0.420000, 0.160000, -0.300000, -0.040000, 0.240000, 0.430000, 0.270000, 0.280000, 0.320000, 0.070000, -0.050000, -0.230000, -0.190000, -0.140000, 0.290000, 0.230000, 0.400000, 0.470000, 
0.450000, -0.470000, -0.060000, 0.390000, 0.010000, 0.010000, -0.160000, 0.080000, 0.120000, -0.120000, -0.040000, 0.060000, -0.220000, 0.210000, -0.380000, -0.080000, 0.460000, 0.140000, -0.300000, 0.020000, 0.280000, 0.270000, -0.290000, 0.110000, -0.060000, -0.080000, 0.450000, -0.210000, 0.410000, -0.340000, -0.130000, -0.480000, 0.420000, 0.390000, 0.120000, -0.180000, -0.130000, -0.160000, 0.040000, -0.020000, -0.480000, -0.490000, -0.390000, -0.010000, 0.250000, 0.350000, 0.060000, -0.280000, 0.420000, 0.310000, 
0.220000, 0.270000, 0.040000, -0.500000, 0.070000, 0.110000, -0.100000, 0.070000, 0.030000, -0.030000, 0.270000, -0.060000, -0.320000, -0.430000, 0.040000, 0.040000, -0.090000, -0.290000, -0.180000, 0.450000, -0.390000, -0.440000, 0.160000, -0.070000, -0.150000, 0.440000, -0.110000, -0.290000, 0.180000, 0.100000, 0.490000, -0.030000, -0.270000, -0.050000, -0.260000, -0.270000, 0.260000, 0.030000, -0.140000, -0.460000, -0.050000, -0.120000, -0.480000, 0.410000, -0.030000, -0.200000, -0.220000, -0.340000, 0.090000, 0.450000, 
0.080000, -0.460000, 0.450000, -0.140000, -0.420000, -0.380000, 0.080000, -0.410000, -0.220000, -0.070000, -0.290000, 0.440000, 0.110000, 0.380000, 0.350000, 0.040000, -0.180000, 0.010000, -0.200000, 0.280000, -0.270000, 0.190000, -0.260000, 0.320000, 0.450000, -0.140000, 0.070000, 0.110000, 0.240000, -0.110000, 0.340000, -0.050000, -0.430000, 0.480000, 0.120000, 0.440000, 0.330000, -0.160000, 0.260000, 0.040000, 0.100000, -0.140000, 0.030000, -0.410000, -0.020000, -0.500000, -0.410000, 0.270000, -0.220000, 0.260000, 
0.470000, 0.010000, 0.380000, 0.400000, -0.080000, -0.330000, 0.390000, 0.010000, -0.010000, -0.140000, 0.350000, 0.210000, -0.380000, 0.240000, -0.460000, 0.130000, -0.150000, 0.360000, -0.010000, -0.070000, -0.120000, 0.430000, -0.140000, 0.330000, -0.030000, -0.210000, 0.000000, -0.230000, 0.380000, 0.230000, 0.450000, -0.420000, 0.010000, -0.400000, 0.460000, -0.140000, 0.000000, 0.300000, 0.040000, 0.030000, 0.030000, 0.300000, 0.130000, 0.260000, -0.040000, -0.220000, -0.020000, 0.100000, -0.450000, 0.170000, 
0.180000, -0.230000, -0.420000, -0.070000, -0.460000, 0.110000, -0.190000, -0.500000, -0.020000, 0.430000, -0.380000, -0.390000, 0.330000, 0.280000, -0.130000, -0.240000, 0.010000, -0.070000, 0.360000, -0.240000, 0.300000, 0.210000, 0.450000, 0.020000, -0.310000, -0.430000, -0.310000, -0.460000, 0.180000, 0.470000, 0.150000, -0.200000, 0.250000, 0.240000, 0.390000, 0.230000, 0.480000, 0.370000, -0.130000, 0.190000, 0.220000, 0.030000, -0.130000, -0.230000, -0.020000, 0.490000, 0.410000, 0.180000, -0.170000, -0.100000, 
0.050000, -0.380000, -0.360000, -0.050000, -0.400000, 0.150000, 0.040000, 0.190000, -0.130000, 0.300000, -0.340000, -0.200000, -0.380000, 0.120000, -0.310000, 0.120000, 0.490000, 0.420000, -0.140000, 0.100000, 0.240000, 0.320000, -0.380000, -0.240000, 0.060000, 0.490000, -0.240000, -0.460000, 0.100000, -0.490000, -0.190000, -0.320000, 0.190000, -0.170000, -0.400000, 0.110000, -0.370000, -0.290000, -0.360000, -0.330000, -0.100000, 0.140000, 0.320000, -0.250000, -0.080000, 0.200000, -0.500000, 0.180000, 0.320000, 0.180000, 
-0.460000, -0.150000, -0.390000, -0.480000, -0.150000, 0.350000, 0.090000, -0.330000, 0.010000, -0.390000, -0.360000, 0.080000, -0.200000, -0.280000, 0.240000, 0.200000, 0.000000, -0.300000, 0.070000, -0.330000, -0.050000, -0.120000, 0.490000, 0.200000, -0.200000, -0.120000, 0.190000, -0.430000, -0.180000, -0.480000, -0.040000, -0.100000, -0.060000, 0.350000, 0.320000, -0.440000, -0.260000, -0.120000, 0.340000, -0.150000, 0.280000, -0.110000, 0.180000, -0.130000, 0.140000, 0.020000, -0.180000, 0.270000, 0.110000, -0.340000, 
-0.430000, -0.280000, -0.270000, -0.460000, 0.010000, 0.120000, -0.290000, 0.030000, -0.170000, 0.330000, -0.290000, 0.320000, 0.460000, 0.410000, 0.120000, 0.440000, -0.040000, 0.330000, -0.300000, -0.160000, -0.240000, -0.180000, -0.460000, -0.220000, 0.300000, -0.500000, -0.400000, 0.360000, -0.430000, 0.330000, -0.230000, -0.350000, -0.480000, 0.410000, -0.220000, 0.040000, 0.260000, 0.060000, -0.190000, -0.020000, -0.120000, -0.180000, 0.470000, 0.390000, -0.250000, 0.230000, 0.490000, -0.130000, -0.380000, -0.070000, 
0.010000, -0.090000, 0.020000, -0.220000, -0.110000, 0.320000, 0.490000, 0.110000, -0.120000, 0.020000, 0.270000, 0.340000, -0.170000, 0.440000, 0.000000, -0.150000, 0.130000, 0.420000, 0.050000, -0.300000, 0.250000, 0.480000, -0.250000, -0.410000, -0.020000, 0.430000, -0.100000, -0.230000, -0.440000, -0.280000, 0.020000, -0.280000, -0.160000, 0.360000, -0.180000, -0.420000, -0.130000, -0.480000, 0.110000, 0.220000, 0.430000, -0.020000, 0.270000, -0.450000, -0.300000, -0.360000, 0.430000, 0.360000, -0.370000, -0.090000, 
0.200000, -0.390000, -0.120000, 0.150000, -0.310000, -0.020000, -0.200000, -0.240000, 0.050000, 0.370000, 0.280000, 0.220000, -0.480000, 0.040000, -0.280000, -0.100000, 0.340000, 0.050000, -0.330000, -0.230000, -0.100000, 0.200000, 0.420000, -0.330000, -0.170000, -0.250000, -0.250000, -0.450000, -0.160000, -0.330000, 0.300000, -0.400000, 0.230000, 0.150000, -0.160000, 0.290000, -0.040000, -0.320000, -0.340000, -0.430000, -0.450000, -0.370000, -0.230000, 0.020000, -0.490000, -0.430000, 0.010000, -0.220000, -0.440000, 0.150000, 
0.120000, 0.050000, -0.460000, 0.180000, -0.060000, -0.230000, -0.030000, 0.330000, -0.450000, 0.040000, 0.470000, -0.080000, 0.420000, 0.090000, -0.440000, -0.460000, -0.440000, -0.230000, -0.130000, 0.210000, 0.440000, -0.330000, 0.450000, -0.330000, 0.350000, 0.000000, 0.400000, 0.040000, 0.360000, -0.140000, -0.180000, -0.190000, -0.410000, -0.470000, 0.010000, 0.200000, -0.450000, 0.120000, 0.000000, 0.070000, 0.100000, -0.110000, 0.150000, -0.300000, 0.270000, -0.160000, 0.390000, 0.370000, -0.130000, -0.420000, 
-0.440000, 0.460000, -0.360000, 0.330000, 0.310000, -0.330000, -0.120000, -0.440000, -0.090000, 0.250000, 0.010000, 0.240000, -0.350000, -0.440000, -0.460000, 0.070000, 0.300000, 0.490000, -0.360000, -0.370000, 0.420000, 0.330000, 0.030000, -0.010000, 0.140000, 0.350000, -0.280000, 0.310000, 0.120000, 0.120000, 0.040000, 0.180000, 0.000000, -0.470000, -0.480000, 0.100000, 0.360000, -0.390000, 0.350000, 0.200000, -0.370000, 0.220000, 0.020000, 0.320000, -0.380000, -0.030000, 0.300000, 0.270000, -0.420000, -0.410000, 
-0.120000, 0.410000, -0.080000, -0.040000, -0.170000, 0.240000, -0.040000, -0.040000, -0.190000, -0.340000, 0.330000, 0.260000, 0.120000, 0.430000, -0.390000, -0.300000, 0.130000, -0.090000, 0.410000, -0.480000, -0.150000, 0.470000, 0.450000, 0.310000, -0.180000, 0.160000, -0.020000, -0.350000, 0.320000, -0.330000, 0.480000, 0.370000, 0.230000, 0.370000, -0.160000, -0.050000, 0.470000, -0.320000, 0.250000, 0.480000, 0.170000, 0.410000, -0.310000, 0.290000, -0.120000, 0.160000, -0.220000, 0.140000, 0.040000, -0.350000, 
0.350000, -0.340000, 0.030000, -0.360000, -0.240000, -0.490000, 0.470000, 0.490000, 0.230000, 0.090000, -0.060000, 0.380000, -0.280000, -0.300000, -0.410000, -0.220000, -0.100000, -0.050000, 0.360000, 0.390000, -0.240000, 0.030000, -0.180000, 0.390000, 0.410000, -0.400000, -0.160000, 0.370000, -0.380000, -0.100000, 0.010000, -0.370000, -0.340000, 0.130000, -0.010000, -0.500000, 0.490000, 0.420000, 0.470000, 0.140000, 0.020000, -0.160000, -0.050000, -0.400000, -0.100000, 0.330000, -0.410000, -0.190000, -0.130000, 0.230000, 
0.310000, 0.040000, 0.060000, -0.350000, -0.230000, -0.480000, 0.190000, 0.280000, 0.090000, -0.440000, 0.250000, -0.190000, -0.340000, 0.430000, 0.250000, -0.300000, -0.440000, 0.140000, 0.470000, 0.450000, -0.160000, 0.470000, 0.490000, -0.270000, -0.390000, -0.070000, 0.440000, -0.340000, -0.010000, -0.290000, 0.390000, -0.170000, -0.500000, -0.250000, 0.110000, 0.070000, -0.310000, 0.440000, -0.240000, 0.100000, 0.390000, -0.450000, 0.180000, 0.000000, 0.020000, -0.170000, 0.160000, -0.100000, -0.010000, -0.450000, 
0.320000, 0.250000, -0.060000, 0.190000, -0.280000, -0.380000, -0.140000, -0.330000, -0.190000, -0.180000, -0.420000, 0.060000, 0.490000, -0.160000, 0.180000, -0.280000, -0.420000, 0.110000, -0.060000, -0.150000, -0.090000, 0.360000, -0.450000, 0.250000, -0.360000, 0.470000, 0.380000, 0.470000, 0.150000, 0.410000, 0.160000, -0.020000, 0.280000, -0.480000, -0.160000, 0.250000, 0.400000, 0.160000, 0.140000, -0.500000, -0.470000, -0.230000, 0.420000, -0.210000, -0.110000, 0.120000, 0.050000, -0.060000, 0.010000, -0.100000, 
0.220000, 0.460000, -0.360000, 0.490000, 0.300000, 0.480000, -0.260000, -0.480000, -0.320000, 0.440000, -0.470000, -0.110000, 0.050000, -0.260000, 0.070000, -0.430000, -0.470000, 0.470000, 0.160000, -0.400000, 0.400000, -0.240000, 0.290000, -0.100000, -0.400000, -0.140000, -0.090000, 0.130000, -0.320000, 0.100000, 0.090000, -0.490000, -0.170000, -0.220000, 0.390000, -0.150000, 0.280000, -0.250000, 0.110000, -0.500000, 0.050000, -0.030000, 0.080000, -0.390000, -0.070000, 0.440000, 0.490000, 0.100000, 0.100000, 0.240000, 
-0.040000, -0.440000, 0.450000, -0.040000, 0.180000, -0.330000, 0.080000, 0.270000, -0.100000, -0.050000, -0.400000, -0.170000, -0.060000, 0.460000, 0.460000, 0.080000, 0.130000, 0.070000, -0.480000, -0.100000, 0.450000, -0.360000, -0.260000, -0.180000, 0.020000, 0.020000, 0.010000, -0.280000, -0.120000, -0.130000, 0.210000, -0.080000, -0.360000, -0.040000, 0.170000, -0.420000, -0.280000, -0.320000, -0.110000, -0.140000, -0.410000, -0.210000, -0.290000, -0.320000, 0.070000, -0.130000, 0.250000, -0.130000, -0.020000, -0.270000, 
-0.480000, -0.320000, 0.470000, -0.480000, -0.330000, 0.000000, -0.490000, 0.360000, 0.320000, 0.050000, 0.030000, 0.190000, -0.480000, 0.490000, -0.040000, 0.470000, -0.300000, 0.150000, -0.070000, -0.130000, -0.260000, 0.080000, -0.420000, -0.010000, 0.360000, -0.400000, -0.100000, 0.300000, 0.170000, 0.290000, 0.210000, 0.060000, -0.030000, -0.480000, 0.370000, 0.010000, 0.190000, -0.020000, -0.430000, -0.220000, 0.380000, 0.400000, -0.450000, -0.260000, 0.480000, -0.220000, -0.180000, 0.130000, 0.320000, 0.080000, 
0.440000, 0.190000, -0.130000, -0.210000, -0.030000, 0.160000, -0.300000, 0.170000, 0.200000, -0.410000, 0.360000, -0.270000, 0.340000, -0.460000, -0.110000, -0.010000, 0.430000, 0.050000, -0.230000, 0.160000, -0.360000, -0.500000, 0.320000, 0.330000, -0.110000, 0.410000, 0.280000, 0.330000, -0.160000, 0.280000, 0.130000, -0.110000, -0.080000, 0.100000, -0.250000, 0.110000, 0.210000, 0.000000, -0.500000, 0.440000, -0.290000, -0.360000, -0.220000, -0.110000, -0.190000, 0.060000, 0.160000, -0.210000, 0.280000, -0.430000, 
0.360000, 0.100000, 0.260000, -0.150000, -0.170000, 0.330000, 0.160000, 0.170000, -0.310000, -0.150000, 0.090000, 0.260000, -0.310000, 0.310000, 0.080000, -0.460000, -0.290000, 0.080000, 0.000000, 0.350000, -0.240000, 0.450000, -0.190000, -0.280000, -0.070000, -0.410000, 0.250000, 0.440000, 0.200000, 0.480000, -0.270000, -0.130000, 0.390000, 0.210000, 0.370000, -0.130000, 0.170000, -0.470000, 0.410000, 0.160000, 0.190000, -0.020000, -0.160000, 0.310000, -0.450000, 0.070000, 0.010000, 0.030000, -0.050000, -0.300000, 
-0.430000, 0.440000, -0.010000, -0.410000, -0.240000, -0.170000, -0.430000, -0.040000, -0.100000, 0.090000, -0.400000, -0.230000, 0.460000, 0.240000, -0.250000, 0.140000, -0.500000, -0.480000, -0.440000, -0.050000, 0.300000, -0.470000, 0.060000, 0.300000, 0.170000, -0.070000, -0.490000, -0.470000, -0.450000, 0.310000, 0.400000, 0.380000, 0.190000, 0.470000, -0.300000, -0.400000, -0.470000, 0.210000, 0.470000, 0.220000, -0.020000, -0.450000, 0.060000, -0.260000, -0.330000, -0.340000, -0.280000, -0.460000, -0.370000, 0.280000, 
0.220000, 0.270000, -0.280000, 0.390000, -0.460000, 0.180000, -0.110000, -0.440000, 0.360000, -0.080000, 0.300000, 0.250000, -0.410000, 0.220000, 0.420000, 0.330000, -0.200000, -0.130000, -0.080000, 0.320000, -0.280000, 0.090000, -0.430000, 0.120000, -0.090000, -0.360000, 0.360000, -0.060000, 0.290000, 0.350000, 0.030000, -0.350000, 0.040000, 0.010000, 0.270000, 0.290000, -0.030000, 0.170000, -0.330000, -0.050000, -0.220000, 0.360000, 0.210000, -0.060000, -0.050000, -0.090000, 0.180000, -0.390000, 0.470000, -0.480000, 
0.010000, 0.310000, -0.220000, 0.430000, 0.300000, -0.220000, 0.060000, 0.060000, -0.420000, 0.010000, 0.080000, -0.230000, -0.080000, 0.150000, -0.040000, 0.420000, 0.000000, -0.070000, -0.260000, 0.420000, -0.210000, 0.250000, -0.280000, 0.210000, -0.400000, -0.090000, -0.230000, 0.180000, 0.400000, -0.240000, 0.040000, -0.160000, -0.110000, 0.400000, 0.090000, -0.080000, -0.390000, -0.430000, -0.480000, 0.070000, -0.310000, 0.460000, 0.380000, 0.270000, -0.360000, -0.440000, 0.150000, 0.330000, -0.160000, -0.320000, 
-0.060000, 0.300000, -0.440000, 0.050000, 0.450000, 0.120000, -0.490000, 0.150000, -0.280000, -0.490000, 0.230000, 0.310000, 0.410000, -0.360000, -0.160000, 0.200000, -0.200000, 0.000000, -0.120000, -0.320000, 0.340000, 0.390000, 0.020000, -0.390000, 0.280000, 0.330000, 0.310000, 0.400000, -0.090000, -0.020000, -0.130000, 0.270000, 0.300000, 0.100000, -0.500000, 0.350000, 0.160000, 0.490000, -0.160000, 0.310000, 0.400000, -0.010000, 0.140000, 0.480000, 0.140000, -0.110000, 0.060000, -0.150000, -0.270000, -0.270000, 
0.180000, -0.240000, -0.310000, 0.210000, 0.300000, -0.120000, -0.340000, 0.170000, 0.310000, 0.240000, 0.370000, 0.450000, 0.110000, -0.070000, 0.180000, -0.160000, 0.340000, -0.190000, -0.300000, 0.400000, 0.070000, -0.300000, -0.230000, -0.300000, -0.270000, -0.180000, -0.300000, -0.420000, -0.390000, 0.260000, 0.280000, 0.180000, -0.420000, -0.320000, 0.080000, -0.470000, -0.500000, 0.320000, 0.040000, -0.160000, 0.230000, -0.080000, -0.180000, -0.370000, 0.040000, -0.020000, -0.270000, -0.010000, -0.270000, 0.420000, 
-0.290000, 0.360000, -0.450000, -0.310000, 0.120000, -0.010000, -0.120000, 0.350000, -0.080000, -0.420000, 0.020000, 0.310000, 0.490000, -0.500000, -0.140000, 0.210000, -0.230000, 0.390000, -0.240000, -0.130000, 0.460000, 0.350000, -0.420000, -0.420000, 0.050000, 0.140000, 0.080000, 0.210000, -0.040000, -0.490000, 0.340000, 0.030000, 0.160000, -0.340000, -0.140000, -0.290000, 0.230000, -0.490000, 0.050000, 0.120000, 0.170000, -0.140000, -0.160000, -0.450000, -0.380000, -0.210000, -0.330000, 0.120000, -0.090000, -0.090000, 
0.010000, -0.230000, 0.480000, -0.250000, -0.490000, 0.190000, -0.290000, -0.090000, 0.240000, 0.360000, -0.370000, 0.080000, -0.080000, 0.130000, -0.490000, 0.480000, 0.060000, -0.400000, -0.290000, -0.030000, -0.250000, 0.150000, 0.300000, -0.170000, -0.270000, 0.180000, -0.120000, -0.230000, 0.090000, 0.000000, 0.410000, -0.400000, 0.470000, 0.250000, -0.230000, 0.180000, 0.160000, 0.460000, 0.450000, 0.260000, -0.320000, 0.110000, -0.060000, -0.360000, -0.170000, -0.160000, -0.440000, -0.440000, -0.140000, -0.180000, 
-0.310000, -0.250000, 0.050000, 0.440000, -0.320000, -0.370000, -0.340000, -0.190000, 0.240000, 0.000000, 0.150000, 0.330000, -0.200000, 0.020000, 0.180000, -0.130000, 0.300000, 0.040000, 0.110000, -0.100000, -0.190000, -0.450000, 0.170000, 0.330000, -0.140000, -0.040000, -0.350000, -0.080000, 0.150000, -0.500000, 0.070000, -0.300000, 0.260000, 0.150000, 0.190000, 0.320000, 0.380000, 0.220000, -0.300000, 0.170000, 0.260000, -0.470000, -0.460000, 0.180000, -0.290000, 0.240000, 0.000000, 0.430000, -0.320000, 0.330000, 
0.380000, -0.450000, 0.160000, 0.340000, 0.200000, 0.440000, 0.280000, -0.440000, 0.160000, -0.070000, 0.120000, -0.140000, 0.340000, 0.240000, 0.150000, 0.380000, 0.450000, -0.440000, -0.130000, 0.160000, 0.080000, -0.470000, 0.280000, 0.230000, -0.480000, 0.090000, -0.180000, -0.370000, -0.040000, 0.180000, 0.400000, 0.270000, -0.190000, -0.480000, 0.420000, -0.420000, -0.090000, -0.110000, 0.360000, -0.370000, 0.160000, -0.320000, 0.300000, -0.020000, 0.160000, -0.290000, 0.030000, 0.480000, 0.290000, -0.360000, 
0.190000, 0.220000, 0.050000, -0.040000, -0.270000, -0.230000, 0.420000, -0.310000, 0.180000, -0.150000, 0.080000, -0.150000, -0.430000, 0.040000, -0.500000, 0.060000, -0.150000, -0.060000, 0.240000, 0.170000, -0.390000, 0.090000, 0.250000, -0.440000, -0.320000, -0.300000, -0.190000, -0.420000, 0.360000, -0.250000, -0.140000, -0.080000, 0.250000, 0.100000, -0.320000, -0.470000, 0.360000, 0.170000, 0.420000, -0.160000, 0.200000, -0.470000, -0.090000, -0.160000, -0.350000, -0.120000, -0.030000, 0.080000, -0.120000, -0.060000, 
-0.010000, 0.180000, 0.340000, 0.450000, -0.070000, 0.050000, 0.340000, -0.490000, -0.400000, -0.200000, -0.150000, 0.210000, -0.440000, -0.120000, -0.210000, 0.000000, -0.490000, -0.340000, -0.050000, -0.120000, 0.450000, -0.280000, 0.170000, -0.420000, -0.320000, -0.160000, -0.360000, 0.210000, -0.190000, -0.260000, -0.210000, -0.080000, 0.480000, -0.210000, -0.450000, 0.140000, -0.040000, 0.250000, -0.280000, -0.200000, 0.030000, -0.150000, -0.390000, 0.310000, 0.440000, 0.430000, 0.090000, 0.350000, -0.430000, 0.240000, 
-0.101307, -0.408041, 0.031111, -0.070142, -0.060985, 0.381667, -0.024957, -0.120302, 0.471098, 0.083147, -0.319544, 0.140562, 0.210774, 0.372354, -0.447601, -0.465025, -0.214047, 0.055128, 0.276745, -0.103324, -0.070002, 0.390921, -0.226064, 0.369585, -0.019411, 0.347591, 0.527294, -0.252198, -0.160008, -0.154215, -0.057645, -0.521147, -0.499630, 0.277684, 0.425488, 0.299144, -0.031265, -0.214478, -0.370567, -0.259247, 0.318958, -0.283269, -0.026979, -0.112656, 0.239525, 0.061934, 0.083976, -0.477443, -0.500377, -0.073341, 
-0.331215, 0.281959, -0.078881, -0.450165, 0.528791, 0.241721, 0.255150, -0.030322, -0.468902, 0.193138, -0.459544, -0.089449, -0.109208, -0.177617, -0.317601, 0.274975, 0.445962, 0.205113, 0.286745, 0.376624, 0.150011, 0.370921, 0.223936, 0.369585, -0.559280, -0.162340, 0.357412, 0.157731, -0.180008, -0.444146, -0.297540, 0.278762, -0.089541, -0.062393, -0.424512, 0.279144, 0.238761, 0.045495, -0.480567, -0.149276, -0.051089, -0.103184, 0.353123, -0.142624, 0.199525, -0.427961, 0.003989, 0.372557, 0.369550, -0.033349, 
-0.300000, -0.350000, 0.350000, -0.330000, -0.400000, 0.120000, -0.340000, 0.140000, -0.180000, -0.420000, -0.470000, 0.250000, 0.110000, 0.290000, -0.250000, -0.390000, 0.010000, 0.090000, -0.420000, -0.080000, -0.080000, 0.450000, -0.280000, 0.450000, -0.090000, 0.010000, 0.010000, 0.440000, 0.180000, 0.320000, 0.150000, 0.070000, 0.230000, -0.320000, -0.360000, 0.050000, 0.230000, 0.320000, -0.500000, -0.230000, -0.170000, 0.090000, 0.210000, -0.050000, 0.480000, -0.480000, -0.320000, 0.120000, -0.200000, -0.210000, 
0.210000, -0.050000, -0.390000, 0.410000, -0.400000, 0.310000, 0.310000, -0.010000, -0.170000, 0.120000, -0.170000, 0.000000, -0.250000, -0.140000, -0.440000, -0.310000, 0.090000, 0.100000, -0.220000, -0.330000, -0.120000, -0.360000, 0.360000, -0.230000, 0.190000, -0.260000, 0.400000, 0.350000, 0.470000, -0.210000, -0.420000, 0.290000, 0.320000, -0.280000, 0.060000, -0.160000, 0.300000, -0.270000, 0.340000, 0.100000, 0.460000, 0.280000, -0.080000, -0.310000, 0.450000, 0.450000, 0.120000, 0.020000, -0.090000, -0.220000, 
-0.240000, -0.410000, -0.260000, -0.410000, 0.130000, 0.400000, -0.410000, -0.500000, 0.040000, 0.060000, 0.400000, 0.320000, -0.340000, -0.100000, -0.440000, 0.200000, 0.200000, -0.010000, 0.210000, 0.140000, -0.190000, 0.390000, -0.220000, 0.090000, -0.070000, 0.160000, 0.140000, 0.490000, -0.160000, -0.230000, 0.360000, -0.250000, -0.300000, -0.080000, 0.040000, 0.110000, 0.420000, -0.120000, -0.040000, -0.270000, -0.480000, -0.310000, 0.160000, 0.350000, 0.160000, 0.030000, 0.430000, -0.300000, 0.040000, -0.270000, 
0.020000, -0.500000, 0.160000, 0.400000, -0.310000, -0.290000, -0.090000, -0.150000, -0.160000, 0.000000, -0.250000, 0.390000, -0.230000, 0.430000, 0.450000, -0.010000, -0.310000, -0.330000, -0.390000, 0.070000, -0.490000, 0.220000, -0.280000, 0.280000, 0.360000, 0.130000, -0.190000, 0.100000, 0.440000, 0.130000, 0.320000, 0.250000, -0.190000, 0.190000, -0.430000, 0.270000, -0.260000, 0.210000, 0.300000, -0.140000, -0.410000, -0.290000, 0.440000, 0.110000, -0.250000, 0.270000, -0.410000, -0.330000, 0.020000, 0.000000, 
-0.230000, -0.130000, 0.280000, -0.050000, 0.220000, -0.450000, -0.440000, -0.370000, 0.300000, 0.280000, 0.450000, -0.230000, 0.290000, 0.320000, 0.110000, -0.160000, 0.360000, -0.050000, 0.110000, -0.130000, -0.460000, -0.380000, 0.050000, 0.490000, 0.400000, 0.070000, 0.180000, -0.400000, 0.130000, -0.050000, -0.140000, 0.390000, -0.220000, -0.340000, -0.140000, 0.090000, 0.170000, 0.420000, -0.270000, 0.490000, -0.070000, 0.350000, -0.200000, -0.050000, -0.060000, 0.180000, -0.280000, 0.390000, 0.040000, 0.290000, 
0.120000, 0.060000, 0.410000, -0.150000, 0.090000, -0.320000, -0.290000, 0.360000, 0.350000, 0.090000, -0.320000, -0.340000, -0.150000, -0.320000, 0.220000, -0.280000, -0.080000, -0.250000, 0.070000, -0.350000, -0.180000, -0.370000, -0.140000, 0.490000, 0.390000, 0.190000, 0.400000, 0.090000, 0.000000, -0.130000, 0.490000, 0.480000, -0.140000, 0.220000, -0.400000, -0.030000, 0.160000, 0.410000, 0.070000, -0.060000, 0.280000, -0.420000, -0.480000, 0.040000, -0.130000, -0.270000, 0.410000, -0.480000, 0.430000, 0.060000, 
0.210000, -0.170000, 0.140000, 0.010000, -0.430000, -0.180000, 0.370000, 0.210000, 0.060000, 0.120000, 0.180000, -0.110000, 0.350000, 0.130000, 0.390000, 0.100000, -0.310000, 0.280000, -0.330000, 0.200000, -0.420000, -0.410000, -0.180000, -0.260000, 0.410000, 0.160000, -0.480000, -0.280000, -0.220000, 0.430000, -0.190000, 0.150000, -0.090000, -0.210000, -0.400000, 0.440000, 0.030000, -0.140000, -0.340000, -0.130000, -0.420000, 0.130000, 0.300000, 0.310000, 0.400000, -0.260000, -0.210000, -0.410000, 0.270000, -0.120000, 
0.490000, -0.490000, 0.320000, -0.250000, 0.260000, 0.330000, -0.080000, 0.240000, -0.480000, 0.020000, 0.110000, -0.130000, 0.360000, -0.140000, -0.370000, 0.450000, 0.450000, -0.150000, 0.120000, -0.370000, -0.320000, -0.380000, -0.420000, -0.350000, 0.370000, 0.460000, -0.180000, 0.260000, -0.270000, -0.230000, 0.350000, -0.020000, -0.020000, 0.180000, -0.340000, -0.190000, -0.160000, -0.100000, -0.350000, -0.220000, -0.030000, -0.010000, 0.210000, -0.030000, -0.040000, -0.270000, -0.020000, -0.440000, 0.490000, 0.040000, 
-0.170000, 0.160000, 0.260000, 0.100000, 0.130000, 0.110000, 0.400000, -0.160000, -0.150000, 0.350000, -0.440000, -0.490000, -0.280000, 0.100000, 0.010000, -0.300000, -0.390000, -0.210000, 0.000000, -0.070000, 0.290000, -0.470000, -0.190000, 0.340000, 0.480000, 0.180000, 0.470000, 0.040000, -0.470000, -0.230000, 0.330000, -0.310000, 0.040000, 0.070000, -0.110000, -0.090000, 0.250000, -0.390000, 0.040000, 0.110000, -0.170000, 0.210000, -0.220000, 0.420000, -0.260000, 0.270000, 0.030000, -0.290000, -0.300000, -0.260000, 
-0.130000, 0.270000, 0.310000, 0.120000, -0.490000, 0.080000, -0.470000, 0.470000, -0.020000, -0.130000, 0.070000, 0.450000, -0.370000, -0.090000, 0.350000, 0.250000, -0.440000, 0.110000, -0.010000, 0.070000, -0.250000, 0.030000, -0.090000, -0.430000, 0.200000, 0.420000, -0.130000, 0.440000, -0.430000, -0.340000, -0.390000, -0.040000, -0.260000, -0.450000, -0.260000, 0.150000, -0.410000, -0.010000, 0.360000, 0.070000, 0.030000, 0.050000, -0.310000, 0.350000, -0.340000, -0.400000, 0.250000, -0.330000, -0.500000, -0.300000, 
0.130000, -0.050000, -0.180000, 0.370000, 0.060000, -0.140000, 0.240000, -0.180000, 0.420000, 0.310000, -0.300000, 0.150000, 0.140000, -0.470000, -0.470000, 0.310000, -0.480000, 0.010000, -0.310000, -0.180000, -0.060000, 0.040000, 0.290000, -0.230000, -0.060000, -0.460000, -0.020000, 0.400000, 0.210000, -0.430000, 0.280000, -0.090000, -0.470000, -0.500000, -0.440000, 0.280000, -0.200000, 0.140000, 0.130000, 0.310000, 0.170000, 0.430000, -0.060000, -0.490000, -0.310000, 0.000000, 0.160000, 0.210000, 0.180000, -0.140000, 
0.000000, -0.410000, -0.220000, 0.220000, -0.050000, -0.350000, -0.110000, 0.030000, 0.350000, -0.430000, 0.450000, 0.230000, -0.140000, 0.350000, 0.080000, -0.070000, -0.370000, 0.060000, 0.240000, 0.310000, -0.430000, -0.320000, -0.400000, 0.030000, 0.220000, -0.490000, -0.280000, -0.320000, -0.430000, -0.210000, -0.340000, 0.450000, -0.100000, 0.250000, 0.460000, -0.230000, -0.080000, -0.090000, 0.460000, -0.340000, -0.460000, 0.410000, 0.350000, 0.240000, 0.340000, 0.160000, 0.310000, 0.160000, -0.360000, 0.450000, 
-0.040000, 0.330000, 0.300000, 0.400000, -0.310000, 0.390000, 0.290000, 0.150000, -0.280000, -0.230000, 0.160000, 0.160000, -0.150000, 0.400000, -0.400000, -0.020000, -0.100000, 0.280000, 0.400000, 0.150000, -0.050000, -0.070000, -0.150000, -0.420000, 0.200000, -0.130000, -0.030000, 0.460000, 0.140000, 0.240000, 0.420000, 0.100000, 0.490000, 0.190000, -0.240000, -0.220000, -0.150000, 0.070000, -0.430000, -0.270000, -0.200000, -0.470000, 0.000000, 0.490000, -0.130000, -0.260000, -0.090000, 0.450000, 0.480000, 0.370000, 
0.110000, -0.120000, -0.340000, -0.480000, -0.020000, 0.010000, -0.490000, -0.420000, -0.410000, 0.470000, 0.390000, -0.060000, -0.380000, 0.240000, -0.270000, 0.460000, 0.420000, 0.030000, -0.390000, 0.440000, 0.120000, 0.410000, -0.220000, 0.400000, 0.330000, 0.470000, -0.420000, -0.210000, -0.280000, 0.360000, 0.140000, -0.280000, -0.370000, 0.400000, -0.120000, 0.490000, -0.410000, 0.130000, 0.210000, -0.030000, -0.430000, 0.250000, 0.160000, -0.030000, -0.360000, -0.400000, -0.290000, -0.010000, -0.070000, 0.350000, 
0.030000, -0.330000, 0.140000, -0.480000, -0.190000, 0.040000, 0.480000, 0.160000, -0.170000, 0.330000, 0.060000, 0.300000, 0.090000, 0.320000, 0.130000, -0.050000, 0.120000, -0.410000, 0.050000, 0.420000, 0.220000, 0.140000, -0.410000, 0.400000, -0.300000, 0.430000, -0.280000, 0.020000, 0.070000, 0.180000, 0.230000, -0.240000, -0.140000, 0.270000, -0.390000, -0.400000, 0.020000, 0.010000, -0.340000, -0.160000, 0.390000, -0.080000, -0.370000, 0.280000, -0.470000, 0.280000, 0.130000, -0.410000, 0.180000, 0.080000, 
-0.420000, 0.040000, 0.000000, -0.170000, 0.210000, 0.200000, -0.410000, 0.080000, -0.360000, 0.130000, -0.190000, -0.440000, 0.430000, 0.150000, -0.340000, 0.130000, -0.420000, -0.180000, 0.220000, -0.080000, -0.180000, 0.450000, -0.100000, -0.250000, 0.040000, 0.080000, 0.180000, -0.200000, -0.050000, 0.120000, -0.240000, 0.120000, 0.140000, -0.240000, -0.120000, 0.120000, -0.360000, 0.420000, -0.160000, -0.290000, 0.120000, -0.440000, 0.100000, 0.200000, -0.090000, 0.230000, -0.120000, 0.140000, 0.190000, -0.090000, 
-0.110000, 0.300000, 0.340000, 0.310000, 0.040000, -0.160000, -0.090000, -0.210000, -0.400000, -0.350000, -0.490000, 0.180000, -0.080000, -0.490000, -0.320000, 0.240000, 0.250000, -0.280000, 0.030000, 0.190000, -0.490000, -0.500000, 0.170000, -0.420000, -0.480000, 0.490000, -0.340000, -0.080000, 0.010000, -0.020000, -0.320000, 0.170000, -0.300000, 0.340000, 0.160000, -0.470000, -0.070000, -0.050000, 0.280000, -0.330000, 0.240000, -0.250000, 0.240000, 0.490000, -0.250000, 0.190000, 0.270000, 0.310000, 0.440000, 0.420000, 
